{"embeddings.NamaKategori_Encoded.weight":[[0.10588940232992172,0.014935774728655815],[0.06764612346887589,-0.04055448994040489],[-0.03456524759531021,-0.0829562172293663]],"embeddings.NamaSubKategori_Encoded.weight":[[-0.001396833686158061,-0.06676086038351059,-0.001121239154599607,0.13006079196929932,-0.10604990273714066,0.11247376352548599,-0.14569808542728424,0.029078597202897072,0.09104381501674652,0.06263678520917892,-0.06451290100812912,0.12026859074831009],[0.01885785348713398,0.06803714483976364,0.015902478247880936,-0.053441084921360016,0.09843851625919342,-0.12427446991205215,0.13472557067871094,-0.11109570413827896,-0.05152621865272522,-0.03792187571525574,-0.04000072181224823,-0.1242469921708107],[0.018106332048773766,0.10012912005186081,0.03716491162776947,-0.014306911267340183,0.083098866045475,-0.1019321084022522,0.14498472213745117,-0.04703478515148163,-0.1555788218975067,-0.0752289742231369,-0.0036372123286128044,-0.19264835119247437],[-0.01811760477721691,-0.030318239703774452,0.0687236487865448,-0.031153185293078423,-0.02154809795320034,0.06854119151830673,-0.013471278361976147,-0.016246739774942398,0.017380092293024063,0.032750051468610764,0.028347073122859,0.00777269434183836],[-0.03926122561097145,0.14686861634254456,-0.011367772705852985,-0.13105684518814087,0.17074312269687653,-0.22463221848011017,0.1565416306257248,-0.16294816136360168,-0.17983369529247284,-0.07017338275909424,-0.07311728596687317,-0.16923491656780243],[-0.04866766929626465,0.04632950201630592,0.00632373197004199,-0.1468711644411087,0.09647156298160553,-0.15485423803329468,0.13988322019577026,-0.11704491078853607,-0.11371016502380371,-0.03764750063419342,-0.011984774842858315,-0.1688341647386551],[-0.020484114065766335,-0.04983894154429436,0.031069455668330193,0.08069386333227158,-0.037496842443943024,0.07311264425516129,-0.04978405311703682,0.06436280161142349,0.01309285033494234,-0.010014025494456291,-0.0843375027179718,0.08665437996387482],[-0.04538191854953766,0.1383802443742752,9.62852209340781e-06,-0.034202273935079575,0.1053973138332367,-0.07678177207708359,0.061083536595106125,-0.11652601510286331,-0.04623270779848099,-0.029262376949191093,-0.006650382187217474,-0.09755789488554001],[0.02812444418668747,0.15552809834480286,0.1080656498670578,-0.12283792346715927,0.25260424613952637,-0.32949748635292053,0.14425864815711975,-0.17550019919872284,-0.23995663225650787,-0.12157782167196274,0.03264822065830231,-0.23471026122570038],[0.011585979722440243,0.12211313098669052,0.03432951122522354,-0.13628503680229187,0.17408959567546844,-0.18521001935005188,0.14157570898532867,-0.1633680909872055,-0.1639985293149948,-0.06503704190254211,0.013948094099760056,-0.1417914181947708],[-0.0037788290064781904,0.1796751618385315,0.03121822141110897,-0.12555991113185883,0.2695792615413666,-0.1933021992444992,0.19098131358623505,-0.17270220816135406,-0.16310341656208038,-0.1177501380443573,0.05488378554582596,-0.13139508664608002],[-0.004323895089328289,0.09151343256235123,-0.004612290300428867,-0.08970896154642105,0.16909651458263397,-0.13787434995174408,0.07359081506729126,-0.10804522782564163,-0.10399556159973145,-0.07598080486059189,0.054385531693696976,-0.10385928303003311],[0.008868860080838203,0.04029262065887451,-0.01920708268880844,0.05598965659737587,0.0516708642244339,0.012169205583631992,-0.03038821555674076,0.0070796022191643715,0.064405657351017,-0.031273458153009415,-0.08159623295068741,0.0015320582315325737],[-0.0011623023310676217,0.2770898640155792,0.016275718808174133,-0.1322733461856842,0.26558175683021545,-0.32434800267219543,0.2724778950214386,-0.1517588496208191,-0.22902114689350128,-0.14446072280406952,0.03326014429330826,-0.24725483357906342],[0.003937093075364828,-0.04116625711321831,0.015212390571832657,-0.0267571322619915,-0.09377686679363251,0.0188674908131361,-0.030242186039686203,-0.03559630736708641,0.005264817271381617,0.02756010740995407,-0.12247726321220398,-0.030516663566231728],[-0.05336452275514603,0.1018911600112915,0.03521838039159775,0.0028828433714807034,0.0626348927617073,-0.029369017109274864,0.03161575272679329,-0.019404537975788116,-0.06979504227638245,0.029373357072472572,-0.03921613469719887,-0.1108616441488266],[-0.03312695771455765,0.01245100423693657,-0.001246355357579887,0.040916796773672104,0.02159273810684681,0.06736710667610168,-0.05241413787007332,0.028455009683966637,0.029205545783042908,0.04728927090764046,0.04608151316642761,0.01566159725189209],[0.03133926913142204,0.0956079289317131,0.016376880928874016,-0.03604990616440773,0.14000870287418365,-0.12221235036849976,0.11434844136238098,-0.1360195279121399,-0.07460729777812958,-0.02193678915500641,0.015332341194152832,-0.08581913262605667],[0.002262064255774021,-0.006834551692008972,0.010045989416539669,0.03287176042795181,-0.10520248115062714,0.03485826402902603,-0.03308255970478058,0.07807488739490509,0.033232081681489944,0.0673443153500557,0.029773730784654617,0.002947052475064993],[0.044898152351379395,0.14714069664478302,0.12414699047803879,-0.12310022860765457,0.22268936038017273,-0.09456201642751694,0.13932988047599792,-0.28576231002807617,-0.12241958826780319,-0.09904589504003525,-0.015622811391949654,-0.10018014162778854],[0.0581955723464489,-0.053577080368995667,-0.012804313562810421,0.11282521486282349,-0.032884884625673294,0.032595738768577576,-0.058003176003694534,-0.013979324139654636,0.06753764301538467,0.0399106927216053,0.05030382424592972,0.026747552677989006],[0.03562559559941292,0.10661590844392776,0.02148972451686859,-0.014989224262535572,0.06235886737704277,-0.04040096327662468,0.07619583606719971,-0.08635352551937103,-0.0632573589682579,-0.040165241807699203,-0.019324613735079765,-0.0829739049077034],[0.0007034575683064759,0.001816567499190569,0.0034178777132183313,-0.004226756747812033,-0.011408939957618713,-0.001290277810767293,0.011294154450297356,-0.009655305184423923,0.02251494862139225,-0.0023674105759710073,0.015173845924437046,-0.003908845130354166]],"embeddings.NamaDivisi_Encoded.weight":[[-0.056528326123952866,0.01792021468281746,-0.03055647201836109,-0.07024744898080826,0.033201415091753006,-0.09136366844177246,0.06638453900814056],[-0.010202317498624325,-0.006369458977133036,-0.050555285066366196,-0.05313863605260849,-0.02219371870160103,-0.03355230763554573,0.004922680091112852],[-0.06454801559448242,0.04424585402011871,-0.019898882135748863,0.020099768415093422,0.1001768633723259,-0.015827372670173645,0.06310099363327026],[-0.23518006503582,0.013987884856760502,0.06187555193901062,0.11094644665718079,0.17196542024612427,-0.05288700386881828,0.07220359891653061],[-0.06717081367969513,0.027293987572193146,-0.0015361557016149163,0.01485118456184864,0.06394530087709427,0.021207446232438087,0.05302866920828819],[-0.06792664527893066,0.09162640571594238,0.03846800699830055,-0.02301918715238571,0.01655060425400734,0.027172870934009552,0.02654936909675598],[0.03875286504626274,0.038996096700429916,0.025631843134760857,-0.1588648557662964,-0.0562916174530983,0.012866806238889694,0.04640801250934601],[-0.038863372057676315,0.09466972202062607,-0.01550888828933239,-0.0022120827343314886,-0.024613628163933754,0.05610377714037895,-0.003105606185272336],[-0.07151307910680771,-0.01478952169418335,0.03302638977766037,0.11030508577823639,0.1625402718782425,-0.03297813981771469,0.06660766154527664],[-0.09819399565458298,-0.023368271067738533,0.02498137392103672,0.058476489037275314,0.16995207965373993,0.026140844449400902,0.032273177057504654],[-0.04143993929028511,0.018909625709056854,-0.04046506807208061,-0.11048026382923126,0.0034642782993614674,0.08110218495130539,0.11923788487911224],[0.032054707407951355,-0.0017943358980119228,-0.013945642858743668,-0.05147990584373474,-0.03164861723780632,0.005872468464076519,0.009107483550906181],[0.04833640530705452,-0.04257616028189659,-0.043875955045223236,-0.06893312931060791,-0.037310704588890076,-0.0028220314998179674,0.05755358189344406],[-8.400221122428775e-05,0.0018973584519699216,-0.0033204660285264254,0.011139229871332645,-0.007227437105029821,-0.00498009379953146,0.014166771434247494]],"embeddings.KodeCabang_Encoded.weight":[[-0.04465705528855324,-0.04336043819785118,0.027475589886307716],[0.03658396005630493,-0.05022689327597618,-0.014949515461921692],[0.018152687698602676,-0.01622701995074749,0.10635647922754288],[0.0033556537237018347,0.03766616806387901,0.066157765686512],[0.024981314316391945,-0.00030585448257625103,0.00876078475266695]],"embeddings.Provinsi_Encoded.weight":[[0.04185773432254791,0.09865528345108032],[0.05885477736592293,0.08860129863023758],[-0.015395411290228367,0.007201688829809427]],"embeddings.Kota_Encoded.weight":[[0.016482790932059288,0.01234494149684906,-0.09435893595218658,-0.08621600270271301,-0.1425582766532898,-0.0055733718909323215,0.09524455666542053,0.012430637143552303,0.046582601964473724,0.06940661370754242,-0.02311096340417862,0.02048546075820923,0.013394924812018871,-0.014537651091814041],[-0.028087466955184937,0.024272246286273003,-0.03171953558921814,-0.008478322066366673,-0.005011777859181166,-0.0075949449092149734,0.07202713191509247,0.029422657564282417,0.007231440395116806,0.0056205992586910725,-0.02102629654109478,0.015241249464452267,-0.03935321792960167,-0.06913216412067413],[0.03879484161734581,0.03264473378658295,0.0033921904396265745,-0.0299257542937994,-0.008594105020165443,0.06388236582279205,0.09188065677881241,0.006289876066148281,0.04000925272703171,0.09852483123540878,-0.07201783359050751,-0.030943015590310097,-0.041487663984298706,-0.008000779896974564],[-0.03336161747574806,0.03625652939081192,0.06946374475955963,0.1160115972161293,0.02329041063785553,0.024882391095161438,-0.08900196850299835,0.058617155998945236,-0.010639836080372334,-0.016505351290106773,-0.04309902340173721,-0.09588131308555603,0.049464717507362366,-0.006760991178452969],[0.010249942541122437,0.02015761286020279,0.009705574251711369,0.07561906427145004,0.03916828706860542,0.006038778927177191,-0.12979190051555634,-0.00812845304608345,0.005365701392292976,-0.03100876323878765,-0.004222996532917023,-0.044584620743989944,-0.010131916031241417,0.034785009920597076],[-0.017494991421699524,-0.009459590539336205,-0.0574444904923439,-0.012796279042959213,-0.026114460080862045,0.0136815644800663,0.00474168173968792,-0.08311613649129868,-0.016624489799141884,0.058810651302337646,-0.0366651751101017,-0.030554136261343956,-0.021380804479122162,-0.07410592585802078],[0.010712934657931328,0.023577189072966576,0.03451512008905411,0.019889356568455696,0.05798056349158287,-0.0180019773542881,-0.032070185989141464,-0.01613238826394081,0.02999892085790634,0.013333700597286224,-0.05077402666211128,0.023392628878355026,0.013854009099304676,-0.011766071431338787],[-0.051281653344631195,0.022477075457572937,0.10397395491600037,0.13635464012622833,0.060936544090509415,0.022445378825068474,-0.14879320561885834,0.023436203598976135,-0.014238174073398113,-0.1013488620519638,-0.01732996478676796,0.021962642669677734,0.0459718182682991,0.021153416484594345],[-0.019571956247091293,-0.05898357555270195,-0.016603505238890648,-0.02222628891468048,0.045780982822179794,0.012233788147568703,0.05701777711510658,0.02480645291507244,0.015580469742417336,0.07383338361978531,-0.06966341286897659,0.08105632662773132,-0.032499223947525024,0.0015270333969965577],[0.0008997397962957621,0.023668702691793442,0.08902917802333832,0.020971957594156265,0.021876707673072815,0.08509964495897293,-0.04123261198401451,-0.0018430217169225216,0.006379937287420034,-0.04550711065530777,-0.07896406948566437,-0.04665859788656235,0.026825200766324997,0.006057401653379202],[-0.02747182548046112,-0.017599811777472496,0.12354638427495956,0.055358294397592545,0.0870017483830452,0.060140423476696014,-0.1177174523472786,0.06163258105516434,0.015275209210813046,0.0452587716281414,-0.03231499344110489,-0.00639390992000699,0.005652516148984432,0.015832243487238884],[-0.00832333229482174,0.034433890134096146,0.07422640174627304,-0.06991181522607803,-0.01292081456631422,0.014944560825824738,-0.09137899428606033,-0.03508741781115532,-0.009689774364233017,-0.07054460793733597,-0.045358769595623016,-0.07681851089000702,-0.014084885828197002,-0.01786019839346409],[-0.017318356782197952,0.02336302399635315,0.1265488862991333,0.09347850829362869,0.07645708322525024,-0.01365606114268303,-0.07609506696462631,-0.045609623193740845,0.010942528024315834,0.0035187534522265196,-0.1268935352563858,-0.08549755066633224,-0.005453454330563545,-0.04834170266985893],[-0.013370061293244362,0.018146922811865807,0.11432483792304993,0.11742164939641953,0.09093091636896133,0.016404254361987114,-0.10221611708402634,0.011996129527688026,0.0007913404260762036,-0.041980329900979996,-0.01667335443198681,-0.058633044362068176,0.006410676054656506,-0.016215141862630844],[-0.050896771252155304,0.012296687811613083,0.20594623684883118,0.252536803483963,0.17219208180904388,0.004287356045097113,-0.18875162303447723,-0.05522019416093826,-0.028277406468987465,-0.10949213057756424,-0.01952543668448925,-0.10510502010583878,0.002449566964060068,0.053004052489995956],[0.041264213621616364,0.05416608229279518,-0.010700850747525692,-0.013024394400417805,-0.00370095856487751,-0.03272167220711708,0.059721045196056366,-0.09562665969133377,-0.018165184184908867,0.06147751584649086,-0.0786338523030281,-0.0796140804886818,0.021509550511837006,-0.022825956344604492],[-0.05359931290149689,-0.011520301923155785,0.12402018904685974,0.14513033628463745,0.10484153777360916,0.05934256315231323,-0.08587494492530823,0.022989537566900253,-0.006206469144672155,0.015067603439092636,0.03906812518835068,-0.02954351156949997,-0.024053476750850677,-0.0044609117321670055],[-0.020020853728055954,0.04259581118822098,0.08321136981248856,0.032049234956502914,-0.03854568675160408,0.03388417884707451,-0.00014717195881530643,-0.015255353413522243,-0.05567990243434906,-0.003518167417496443,-0.06396330147981644,-0.06668812781572342,0.008341602049767971,-0.04096966236829758],[-0.09898988902568817,0.013170626945793629,0.19922783970832825,0.26572170853614807,0.11516619473695755,0.061051417142152786,-0.2036714255809784,-0.004825695883482695,-0.06362517923116684,-0.11508050560951233,-0.016254985705018044,-0.07601237297058105,0.03239678591489792,-0.03532615303993225],[0.03272251412272453,-0.01275684218853712,0.024883953854441643,-0.02438432350754738,0.03673820197582245,0.05429861322045326,-0.0004966866108588874,-0.1036280170083046,-0.019959187135100365,0.07511488348245621,-0.020424136891961098,-0.06529254466295242,0.0033270602580159903,-0.005021184217184782],[0.03440973907709122,0.007097500842064619,0.01566256396472454,0.01803254522383213,0.05827407166361809,-0.014350110664963722,-0.005136053077876568,0.0442911796271801,-0.06327328830957413,0.02632845938205719,-0.04320171847939491,0.030036533251404762,0.000233712256886065,-0.03835810348391533],[-0.008732260204851627,0.07026416063308716,0.06473466008901596,0.012979548424482346,-0.044429074972867966,0.04973295331001282,0.11570396274328232,-0.0009697983623482287,0.01581820659339428,0.06743910908699036,-0.0919838696718216,-0.017858188599348068,0.005072575993835926,0.014679063111543655],[0.015034358017146587,-0.08566325902938843,-0.02358761429786682,0.05496437847614288,0.009729044511914253,-0.01517476700246334,-0.052103642374277115,-0.002813022118061781,-0.10558146983385086,-0.09672316908836365,0.07872207462787628,0.05010191351175308,0.033830247819423676,-0.009116391651332378],[0.08152072876691818,0.0356808640062809,-0.15544529259204865,-0.17860513925552368,-0.05225994437932968,-0.047589778900146484,0.16211816668510437,-0.01994447223842144,0.05045546963810921,0.11395195126533508,-0.021063074469566345,0.06223951652646065,0.05780623108148575,-0.022867238149046898],[0.01746911182999611,-0.08679094165563583,-0.053431764245033264,-0.10159314423799515,-0.04640135169029236,-0.07965964078903198,0.07318710535764694,0.040204599499702454,0.05718250200152397,0.04350830987095833,0.01941133663058281,0.08667226880788803,0.030837154015898705,0.032846659421920776],[-0.10596092790365219,-0.014261838980019093,0.03448201343417168,0.13301131129264832,0.15335363149642944,-0.07864349335432053,-0.07769333571195602,-0.1261482685804367,-0.08855225145816803,-0.13062632083892822,0.07691105455160141,-0.02402476593852043,0.059498321264982224,0.01905147358775139],[0.008123353123664856,-0.004373299889266491,-0.00047961113159544766,0.0024698032066226006,-0.01803603209555149,0.004718800075352192,0.01125243492424488,0.006289666052907705,-0.005638041999191046,0.011316279880702496,0.015521502122282982,-0.002457804512232542,-0.03225928544998169,0.0005598376737907529]],"embeddings.Jumlah_Bin_Encoded.weight":[[0.0559694878757,0.023217985406517982],[0.09546831250190735,0.05307813733816147],[0.05631917342543602,-0.04247099533677101],[0.08488157391548157,0.016215329989790916]],"embeddings.NamaGroupCustomer_Encoded.weight":[[-0.045269761234521866,0.034449514001607895,-0.10981133580207825,0.030782807618379593,0.03774417191743851,-0.045573148876428604,-0.02222449705004692,0.023523474112153053,0.06033741682767868],[-0.053522806614637375,-0.005576039664447308,-0.035586319863796234,0.015407631173729897,-0.028847772628068924,-0.0550430603325367,0.018287256360054016,-0.013347073458135128,0.04143579304218292],[-0.08784984797239304,-0.05274932086467743,-0.04341481626033783,-0.0056717852130532265,-0.00314001040533185,0.02555057406425476,0.028785893693566322,-0.016325918957591057,0.03351479396224022],[0.051469508558511734,0.06482339650392532,0.009542430751025677,0.018236253410577774,0.03656262904405594,0.10215949267148972,-0.13257136940956116,0.08715002983808517,-0.07150446623563766],[0.028505075722932816,-0.025748001411557198,0.07410529255867004,-0.11222641170024872,-0.008386757224798203,0.04522281140089035,-0.1247875764966011,0.06731248646974564,0.02354993298649788],[-0.010604793205857277,-0.014596414752304554,-0.002051218878477812,0.016053415834903717,0.046852726489305496,0.012595530599355698,-0.010472294874489307,-0.03462452068924904,0.004152360837906599],[-0.0015361268306151032,-0.012718572281301022,0.045059934258461,-0.09472855180501938,-0.024389617145061493,0.13868844509124756,-0.12647639214992523,0.0180651992559433,0.011104615405201912],[-0.08231957256793976,0.010139466263353825,-0.08364182710647583,-0.03425157442688942,0.021675115451216698,-0.007155867293477058,0.13154448568820953,-0.0370120145380497,0.08248744904994965],[0.018635375425219536,0.00884739775210619,-0.035890210419893265,0.005425159819424152,-0.02594824507832527,-0.023515721783041954,0.02254740707576275,-0.02790014259517193,-0.014865866862237453],[-0.003564209910109639,-0.05048254877328873,0.03831665962934494,-0.000637630233541131,-0.07612257450819016,-0.05387897044420242,0.09536921977996826,-0.02969423308968544,0.042141254991292953],[-0.0026494464837014675,0.0010180305689573288,-0.04372384026646614,-0.04166557639837265,-0.029572056606411934,-0.028277019038796425,0.03859633952379227,0.0191059373319149,-0.08493200689554214],[-0.03543943539261818,-0.08618903160095215,0.026718497276306152,0.13849687576293945,-0.09986047446727753,-0.16307097673416138,0.14844322204589844,-0.03809335455298424,0.08595599979162216],[-0.04139488935470581,0.06661032885313034,-0.0970340147614479,0.08930211514234543,0.07942941039800644,-0.04535839706659317,-0.010530294850468636,-0.06954628974199295,0.09863216429948807],[-0.016724657267332077,-0.060743000358343124,0.005145150236785412,0.03855907917022705,-0.0059132338501513,-0.09928331524133682,0.10742919892072678,-0.11033832281827927,0.05654314532876015],[0.008106805384159088,-0.022972524166107178,-0.012352478690445423,0.020565813407301903,-0.031252384185791016,-0.04148631915450096,0.14449982345104218,-0.015735547989606857,0.03596094250679016],[-0.055772826075553894,0.023798855021595955,0.013699758797883987,0.014682790264487267,-0.01359749585390091,-0.042888034135103226,0.12316717207431793,-0.09895984828472137,0.07215088605880737],[-0.10792629420757294,0.003575689159333706,-0.06982184201478958,-0.00022542019723914564,-0.06921079009771347,-0.02508503384888172,0.021640866994857788,-0.028571728616952896,0.008924156427383423],[-0.016507238149642944,0.006500846240669489,0.00837499089539051,0.018875781446695328,-0.0016645521391183138,-0.017090871930122375,-0.00161182030569762,0.012642738409340382,0.006242591422051191]],"input_proj.bias":[-0.0528109185397625,-0.05177760124206543,-0.061436425894498825,-0.0693935751914978,-0.05551748722791672,-0.061196282505989075,-0.08668355643749237,-0.09558043628931046,-0.033352676779031754,-0.04110854119062424,-0.07273951172828674,-0.032885897904634476,-0.05970821529626846,-0.033259328454732895,-0.01510391291230917,-0.05075583979487419,-0.05973024666309357,-0.04989612102508545,0.03252732381224632,-0.0241454616189003,0.03180653229355812,-0.05264238640666008,-0.06067122146487236,-0.0629027932882309,-0.05920381471514702,-0.05970018729567528,0.007982276380062103,0.0058633205480873585,-0.010211382061243057,-0.09845560789108276,-0.014753751456737518,-0.051918257027864456,-0.05378999933600426,-0.07856933027505875,-0.04567450284957886,-0.10967131704092026,-0.062366873025894165,-0.04074607044458389,-0.027975769713521004,-0.032748978585004807,-0.06275388598442078,-0.04488915950059891,-0.0923922061920166,-0.06882686913013458,-0.06169798970222473,-0.061351533979177475,-0.024219674989581108,-0.05948396772146225,-0.05223298445343971,-0.04596726968884468,-0.07818270474672318,-0.03859971836209297,-0.06935228407382965,-0.0706472173333168,-0.015845036134123802,-0.07842147350311279,-0.06333117187023163,-0.022668585181236267,-0.04947303235530853,-0.0507543608546257,-0.04356911778450012,-0.03756079450249672,-0.07279055565595627,-0.08363112062215805,-0.057142917066812515,0.005983881652355194,-0.05249333009123802,0.014378577470779419,-0.07479502260684967,-0.050388485193252563,-0.09178829193115234,-0.06365656107664108,-0.011708775535225868,-0.048395294696092606,-0.04564362019300461,-0.07149449735879898,-0.06991628557443619,-0.059631891548633575,-0.04913600906729698,0.011973470449447632,-0.05011141672730446,-0.05359625816345215,-0.058785874396562576,-0.1277831792831421,-0.035664111375808716,-0.030773788690567017,-0.007556210737675428,-0.052075840532779694,-0.06909459829330444,-0.06590878218412399,-0.05181633681058884,-0.09994466602802277,-0.05110267922282219,0.026597511023283005,-0.08146225661039352,-0.07751969248056412,-0.024806713685393333,-0.07977814227342606,-0.09666204452514648,-0.019657032564282417,-0.07958858460187912,-0.01468393299728632,-0.06854891031980515,-0.07641531527042389,-0.07116034626960754,-0.06236928328871727,-0.10334625840187073,-0.060872625559568405,-0.052522171288728714,-0.012784449383616447,-0.04042981192469597,-0.04980824515223503,-0.08054219186306,-0.05373892933130264,-0.036910563707351685,-0.06547021120786667,-0.06705430150032043,-0.03985528647899628,-0.07904946804046631,-0.07166748493909836,-0.050729770213365555,-0.06020515412092209,-0.046815067529678345,-0.045783694833517075,-0.04208943620324135,-0.06649383902549744,-0.04981174319982529,-0.004255431704223156,-0.05570754408836365,-0.08775598555803299,-0.07579876482486725,-0.02261461317539215,-0.027242092415690422,-0.02186897210776806,-0.038075149059295654,-0.06289679557085037,-0.08572880923748016,-0.0684061050415039,-0.061911650002002716,-0.007986195385456085,-0.03443625941872597,-0.05596242472529411,-0.04458891972899437,-0.06549479812383652,-0.04678238183259964,-0.07371815294027328,0.003221294842660427,-0.06553766131401062,-0.032420460134744644,-0.07144524902105331,-0.008235289715230465,-0.0970844179391861,-0.03622322529554367,-0.06567949801683426,-0.10924727469682693,-0.027726110070943832,-0.04612791910767555,-0.07740062475204468,-0.07396780699491501,-0.06375636160373688,-0.0821680799126625,-0.08042073249816895,-0.07342911511659622,-0.08228150010108948,-0.0613601952791214,-0.05001746490597725,-0.05843999981880188,-0.05078865960240364,-0.08642757683992386,-0.061565298587083817,-0.021794266998767853,-0.10271480679512024,-0.07392904162406921,0.01893736980855465,-0.048673007637262344,0.0021592709235846996,-0.11854728311300278,-0.08256566524505615,-0.022743426263332367,0.003867488354444504,-0.038032304495573044,-0.046248242259025574,-0.08459429442882538,-0.06863313913345337,-0.07053472101688385,-0.0563497319817543,-0.07923415303230286,-0.04219604283571243,-0.10403837263584137,-0.06518558412790298,-0.09447683393955231,-0.061263494193553925],"residual_blocks.0.linear.bias":[-0.06136693060398102,0.029186546802520752,-0.010295146144926548,-0.027923762798309326,-0.027358995750546455,-0.028165508061647415,-0.03315173089504242,-0.10204374045133591,0.016833582893013954,-0.04042699560523033,-0.08806750923395157,0.02299944870173931,-0.03177889063954353,0.062782421708107,-0.04087447747588158,0.02708837389945984,-0.03479833900928497,-0.06887079030275345,0.00555086974054575,-0.04114814102649689,-0.006941684056073427,-0.057776130735874176,-0.05983962491154671,-0.08078256249427795,-0.03003830648958683,-0.03490953519940376,0.00722169317305088,-0.024557683616876602,0.024565959349274635,-0.04293898865580559,0.006993598770350218,-0.03334162384271622,-0.06933045387268066,-0.0642741322517395,-0.031198831275105476,-0.07115432620048523,-0.021075252443552017,0.0317123644053936,-0.009944903664290905,-0.0037937916349619627,-0.02538701705634594,-0.030010441318154335,-0.09595003724098206,-0.08055953681468964,0.046822454780340195,-0.011810789816081524,-0.004937995225191116,-0.030139992013573647,-0.03637140244245529,-0.02090703323483467,-0.05125359073281288,-0.061442531645298004,-0.04665670916438103,-0.022823335602879524,-0.066477470099926,-0.08120287954807281,-0.055042658001184464,-0.010696043260395527,-0.049417462199926376,0.0050590564496815205,-0.06680417060852051,0.08508973568677902,-0.022664465010166168,-0.07385305315256119,0.011326535604894161,0.03619353845715523,-0.007736682426184416,0.005912113934755325,-0.1062641367316246,0.010086859576404095,-0.06144465506076813,-0.008901426568627357,0.012409164570271969,-0.05723275989294052,-0.01618644967675209,0.004895982798188925,-0.03255109861493111,-0.07048361003398895,-0.02032877318561077,0.05471020191907883,-0.07263296842575073,-0.03998751938343048,-0.10668393969535828,-0.12124853581190109,0.0022297189570963383,0.0729326456785202,0.020142104476690292,-0.05375838279724121,0.007864798419177532,-0.09242342412471771,-0.04992513731122017,-0.05647743493318558,-0.05152779445052147,-0.010743100196123123,-0.07061388343572617,-0.04738865792751312,-0.014665142633020878,-0.06421737372875214,-0.025568237528204918,0.008942373096942902,-0.06189294159412384,-0.0002295194281032309,-0.00954865850508213,-0.07553139328956604,-0.021747903898358345,-0.07937547564506531,-0.010356420651078224,-0.02102571912109852,0.005881656892597675,0.030504312366247177,-0.023650754243135452,0.00212382641620934,-0.039669185876846313,-0.08595304191112518,-0.06308605521917343,0.01535679493099451,-0.03266874700784683,-0.06582070142030716,-0.06849919259548187,-0.01837005838751793,-0.008701171725988388,-0.003985144197940826,-0.004736769944429398,0.028828108683228493,-0.038326483219861984,-0.0035887197591364384,-0.06183204427361488,-0.012097571045160294,-0.04390010982751846,-0.07007335126399994,-0.04646069183945656,-0.06461624801158905,-0.053555697202682495,-0.029184887185692787,-0.003741436405107379,-0.06823655962944031,-0.04987643286585808,-0.05216309800744057,-0.035121142864227295,-0.03355354070663452,-0.0008431667811237276,-0.029598765075206757,-0.051072798669338226,0.012440442107617855,-0.08255747705698013,-0.03195662051439285,-0.017317237332463264,-0.04466016963124275,0.019779646769165993,-0.054890330880880356,0.019080234691500664,-0.04772974178195,-0.014177392236888409,0.020672891288995743,-0.03527640923857689,-0.03211900591850281,0.06369830667972565,-0.08393384516239166,-0.025090036913752556,-0.032159604132175446,-0.020179258659482002,-0.07222971320152283,-0.018125582486391068,0.014512279070913792,-0.008424396626651287,0.027979044243693352,-0.0448363795876503,-0.0007198327803052962,-0.07468239963054657,-0.01857197843492031,0.027019081637263298,-0.07346028089523315,-0.04282958433032036,0.0016218695091083646,-0.03318815305829048,-0.021897217258810997,-0.03254189342260361,-0.029423173516988754,-0.012663262896239758,0.052957966923713684,-0.09605167806148529,-0.04527130350470543,-0.07437193393707275,-0.037356819957494736,-0.03860355168581009,-0.04589059576392174,-0.0924692153930664,-0.039839066565036774,-0.07375482469797134,0.039580266922712326,-0.0713544711470604,-0.004027256742119789],"residual_blocks.1.linear.bias":[-0.0033255803864449263,0.027175210416316986,-0.035968679934740067,-0.049249887466430664,0.03244565799832344,-0.0033083215821534395,-0.03598802164196968,-0.10701803863048553,0.010666764341294765,-0.015279743820428848,-0.11975065618753433,0.005298132076859474,0.01788228750228882,-0.007428293116390705,-0.061189476400613785,-0.023098174482584,-0.07547222822904587,-0.1250971555709839,0.01177255343645811,-0.034171201288700104,0.014182180166244507,-0.021848592907190323,-0.06366508454084396,-0.0648861825466156,0.017390131950378418,-0.008818225935101509,-0.054672230035066605,-0.04217832162976265,0.0069571807980537415,-0.07091609388589859,0.004217349924147129,-0.028264760971069336,-0.09214318543672562,-0.08639751374721527,-0.029532043263316154,-0.05075851455330849,-0.02845633216202259,-0.005607247352600098,-0.01830475777387619,-0.025182180106639862,-0.0992598906159401,-0.06719959527254105,-0.043170664459466934,-0.05163725093007088,-0.029156072065234184,-0.03148619830608368,0.02462933398783207,-0.05619801580905914,0.002731219632551074,0.017046092078089714,-0.04095513001084328,-0.06714323908090591,-0.05635647848248482,-0.03260792791843414,-0.044019006192684174,-0.088959239423275,-0.07236050069332123,-0.015960529446601868,-0.046258896589279175,0.030429068952798843,-0.08613710850477219,-0.0009801331907510757,-0.021542705595493317,-0.11370283365249634,0.011780728586018085,0.019919900223612785,-0.033235467970371246,-0.037730127573013306,-0.14104127883911133,-0.027140263468027115,-0.03465362638235092,-0.04597875103354454,0.035386186093091965,-0.07468350976705551,-0.1027548685669899,-0.04778122156858444,-0.07325588911771774,-0.012012645602226257,-0.05157947167754173,-0.015004386194050312,-0.07219742983579636,0.10083077847957611,-0.11976751685142517,-0.10524056851863861,-0.06635976582765579,0.05566708743572235,-0.026713693514466286,-0.02336379885673523,-0.0480782687664032,-0.08013366907835007,0.02949967235326767,-0.059628669172525406,-0.049504321068525314,-0.02273542992770672,-0.04929489269852638,-0.04055194929242134,-0.024339737370610237,-0.06426232308149338,-0.05406530946493149,0.012197704054415226,-0.032897111028432846,-0.0015113694826141,-0.07929643988609314,-0.0869331806898117,-0.0385843850672245,-0.0404253788292408,-0.09541686624288559,-0.026504341512918472,-0.03068177029490471,0.023331699892878532,-0.017177414149045944,0.021623725071549416,-0.09282366186380386,-0.07850012928247452,-0.01359855942428112,0.03421324864029884,-0.07364547997713089,-0.049818750470876694,-0.15303926169872284,-0.022913562133908272,-0.06239621713757515,-0.006709901150316,0.0502300038933754,0.05037765949964523,-0.06569097936153412,-0.015483899973332882,-0.040558863431215286,0.02126682549715042,-0.0722530335187912,-0.0791735127568245,-0.07887549698352814,-0.04041744023561478,-0.06799431890249252,-0.07077573984861374,-0.06179792061448097,-0.06840860843658447,-0.07759469747543335,-0.08492887020111084,0.053108539432287216,-0.02084282785654068,0.03045218251645565,-0.030331643298268318,0.0027083863969892263,0.041377872228622437,-0.044513389468193054,-0.06475068628787994,0.029542963951826096,-0.07751703262329102,-0.05519210919737816,-0.024586277082562447,-0.04892507568001747,-0.04343140497803688,-0.03018072061240673,-0.006120489910244942,-0.07857546210289001,-0.009873439557850361,-0.003287357510998845,-0.01633422076702118,-0.04667572304606438,-0.03478390350937843,0.010515444912016392,-0.08763200044631958,-0.06686895340681076,-0.04990842193365097,0.006861051078885794,0.008190690539777279,-0.06884097307920456,-0.0425509549677372,-0.02284240536391735,-0.023691460490226746,-0.022531047463417053,-0.0729539543390274,-0.03410043939948082,0.011641249991953373,-0.03993711248040199,0.010281121358275414,0.031634144484996796,0.011465332470834255,-0.029294518753886223,0.020315678790211678,-0.0762823298573494,-0.032389700412750244,-0.06600291281938553,-0.0640283152461052,-0.05966050550341606,-0.015635473653674126,-0.07499199360609055,-0.029547814279794693,-0.05861351639032364,-0.04233086109161377,-0.07401778548955917,-0.007496614940464497],"residual_blocks.2.linear.bias":[-0.026845159009099007,-0.006499313749372959,-0.007482137996703386,-0.05405750125646591,-0.010192064568400383,-0.04366563260555267,-0.03660404309630394,-0.10529442876577377,-0.006919275037944317,-0.02181210182607174,-0.11328236013650894,-0.03396448865532875,-0.0578107051551342,-0.03253624588251114,-0.08732642978429794,-0.037160079926252365,-0.09774425625801086,-0.0951479896903038,0.008724416606128216,-0.09434348344802856,-0.023297347128391266,-0.06917954236268997,-0.09048550575971603,0.006594387348741293,-0.02667921595275402,0.02609555795788765,-0.0695519745349884,-0.07414209842681885,-0.03929980844259262,-0.10844152420759201,-0.11207683384418488,-0.04555140435695648,-0.04914391413331032,-0.06811074912548065,0.06678212434053421,-0.07706312835216522,-0.08274691551923752,0.015060354955494404,0.05840505287051201,-0.06176761910319328,-0.15559637546539307,-0.10817715525627136,-0.05978699401021004,-0.01787409745156765,-0.08146081864833832,-0.048389874398708344,-0.051925864070653915,-0.09373685717582703,0.03868866711854935,0.007594544906169176,0.00012647814583033323,-0.024762360379099846,-0.04442765191197395,-0.09683054685592651,-0.06428695470094681,-0.1313517987728119,-0.06626926362514496,-0.001970668090507388,-0.06515787541866302,-0.031785618513822556,-0.08365339040756226,0.014282680116593838,0.048184435814619064,-0.10027330368757248,0.001544058439321816,-0.011209259741008282,-0.039736781269311905,-0.044638849794864655,-0.10156778991222382,-0.04330376908183098,-0.11282158643007278,-0.03807718679308891,-0.004111530724912882,-0.0903688371181488,-0.026630232110619545,-0.06569504737854004,-0.09725474566221237,-0.033007048070430756,-0.12374195456504822,0.013433554209768772,-0.0617784708738327,0.0052284859120845795,-0.1228751540184021,-0.12114207446575165,-0.014816208742558956,0.09446284174919128,-0.02524420991539955,-0.06170022860169411,-0.09873691946268082,-0.035897739231586456,-0.04751664400100708,-0.05777066946029663,-0.061989229172468185,0.0028147101402282715,-0.04552033916115761,-0.06584466248750687,-0.04392894357442856,-0.11351285129785538,-0.00266412366181612,0.01071049552410841,-0.1227279081940651,-0.08454345166683197,-0.08899117261171341,-0.06859798729419708,-0.010049033910036087,-0.07101166248321533,-0.08796004205942154,-0.057739220559597015,-0.08578403294086456,-0.01758371666073799,-0.045847341418266296,-0.0020343991927802563,-0.07553423941135406,-0.04996185377240181,-0.014154870063066483,-0.021687647327780724,-0.0615287646651268,-0.1028066873550415,-0.13393452763557434,-0.05475759133696556,-0.0011141349095851183,-0.00032509095035493374,-0.015672186389565468,0.03879367187619209,-0.10532037913799286,-0.024599015712738037,-0.08779694139957428,0.0014962508575990796,-0.04622027277946472,-0.05360740050673485,-0.010548535734415054,0.018565021455287933,-0.0516166053712368,-0.1091134175658226,-0.04473770782351494,-0.026114383712410927,-0.061704687774181366,-0.04273472726345062,0.02583479695022106,-0.03702148422598839,-0.005289396271109581,-0.07628799974918365,-0.010527255944907665,-0.04674210399389267,-0.038848452270030975,-0.10899835079908371,-0.03206449747085571,-0.1243968978524208,-0.07867208868265152,-0.02279149554669857,-0.08319233357906342,-0.026870176196098328,-0.04523409903049469,0.00505546061322093,-0.09293468296527863,-0.029385900124907494,-0.04342485964298248,-0.0990511104464531,-0.0047655291855335236,0.008466426283121109,-0.09565839171409607,-0.06729480624198914,-0.054754529148340225,-0.018072286620736122,0.045557331293821335,-0.06202325224876404,-0.13072532415390015,-0.11080397665500641,-0.08317336440086365,-0.06778442114591599,-0.03533989563584328,-0.04389290511608124,-0.055052533745765686,0.05720176920294762,-0.06606393307447433,-0.06043897941708565,0.03597448021173477,-0.07474970072507858,-0.0726381316781044,-0.0642838403582573,-0.055716678500175476,-0.08065427839756012,-0.06080063059926033,0.01911131851375103,-0.0254232045263052,-0.009189175441861153,-0.0313226580619812,-0.03203096240758896,-0.11167540401220322,-0.07852699607610703,-0.07272545993328094,0.0022801607847213745],"residual_blocks.3.linear.bias":[-0.04917954280972481,-0.1533091962337494,-0.0914696753025055,-0.013277865946292877,-0.034721218049526215,-0.058625996112823486,0.00062562309904024,-0.054199256002902985,-0.10712138563394547,-0.03809969872236252,-0.06514005362987518,-0.03409041836857796,-0.126408651471138,-0.000977749819867313,-0.05452815443277359,-0.06846129894256592,-0.013359312899410725,-0.10624100267887115,-0.08314920216798782,-0.045836832374334335,-0.00916093960404396,-0.045492734760046005,-0.09806293994188309,-0.08756965398788452,-0.06766272336244583,-0.008902667090296745,-0.09456412494182587,-0.06609124690294266,-0.04326019808650017,-0.08374316245317459,-0.12470389902591705,-0.10038302838802338,-0.11167827993631363,-0.09296941757202148,-0.09335540980100632,0.001838537398725748,-0.08031600713729858,0.016092371195554733,-0.03210071101784706,-0.018186204135417938,-0.13711050152778625,-0.10752692073583603,-0.07683663070201874,0.002115667564794421,-0.093034528195858,-0.030626205727458,-0.12530851364135742,-0.09253529459238052,-0.04910167679190636,-0.04773593693971634,-0.09176229685544968,-0.06735836714506149,-0.11947979032993317,-0.11873804032802582,-0.02597632072865963,-0.08385316282510757,-0.026478832587599754,-0.005693213082849979,-0.08041534572839737,-0.09881633520126343,-0.03681410476565361,-0.04616713523864746,0.012764920480549335,-0.07402069121599197,-0.04584836959838867,-0.05322498083114624,-0.04835561290383339,-0.04958410933613777,-0.07882001996040344,-0.05410007759928703,-0.05608431622385979,-0.007186755537986755,-0.03353467583656311,-0.09670724719762802,-0.09687376767396927,-0.09106943011283875,-0.05717870965600014,-0.07149141281843185,-0.16580559313297272,-0.038489870727062225,-0.02909054048359394,-0.029067769646644592,-0.07366682589054108,-0.13151094317436218,-0.06699799001216888,-0.07102617621421814,-0.0480111800134182,0.005406249314546585,0.005151889752596617,-0.0400705449283123,-0.07250349968671799,-0.032132066786289215,-0.07385165244340897,-0.016020646318793297,-0.10368230938911438,-0.01348275039345026,-0.05767492577433586,-0.1391126662492752,-0.08407361060380936,-0.019788596779108047,-0.06251778453588486,-0.109620600938797,-0.14153774082660675,-0.039377715438604355,-0.12000636011362076,-0.03274210914969444,-0.18164889514446259,-0.1435430645942688,-0.12107885628938675,0.037301432341337204,-0.06001359596848488,-0.05589182674884796,0.0425448901951313,-0.015576815232634544,-0.08681683242321014,-0.012817589566111565,-0.11475921422243118,-0.1046011745929718,0.038724496960639954,-0.012881230562925339,0.028741709887981415,0.0005789893912151456,-0.09965857863426208,-0.04658924788236618,-0.06773053854703903,-0.0852038711309433,-0.044079095125198364,-0.13385964930057526,-0.09833088517189026,-0.04004381597042084,-0.02799818478524685,-0.0767880454659462,0.03927323967218399,-0.09058816730976105,-0.06853507459163666,-0.17381563782691956,-0.10964249074459076,0.027568809688091278,-0.07366862893104553,-0.05679313465952873,-0.045426853001117706,-0.11019127815961838,2.0907536963932216e-05,0.042619578540325165,0.008452480658888817,-0.03674247860908508,-0.022712094709277153,-0.15361402928829193,-0.00706908106803894,-0.14472971856594086,0.03719278424978256,-0.12749943137168884,-0.05784998834133148,-0.010392410680651665,-0.09476570785045624,-0.08718940615653992,-0.06832816451787949,-0.05270588770508766,-0.04623875021934509,-0.05143405869603157,-0.10239386558532715,-0.044580042362213135,-0.10615026205778122,-0.04847387596964836,-0.01222697738558054,-0.1409163922071457,-0.16989263892173767,-0.059033434838056564,-0.03636377304792404,-0.10750394314527512,-0.07616235315799713,-0.08393213152885437,-0.05524851381778717,-0.0934087336063385,-0.036335788667201996,-0.04253669083118439,-0.06606410443782806,-0.08858367800712585,-0.008090033195912838,-0.13547803461551666,-0.04880693554878235,-0.10151160508394241,-0.016195407137274742,0.004564193543046713,-0.0632391944527626,-0.138107031583786,-0.018042875453829765,-0.04460560157895088,-0.015529525466263294,-0.018396945670247078,-0.04931505769491196,-0.0726669579744339],"output.weight":[[-1.8342267139814794e-05,-0.012247106060385704,0.03857224062085152,0.014133038930594921,0.0447152815759182,-0.016988152638077736,0.012608177028596401,0.01357957348227501,0.0020341286435723305,-0.013271845877170563,-0.022586209699511528,0.04293176531791687,-0.038096144795417786,-0.003480280749499798,-0.012907653115689754,0.031495507806539536,0.012171725742518902,-0.000693467736709863,0.01696418784558773,0.011563151143491268,0.020873233675956726,0.006864138878881931,-0.04250559210777283,-0.013813020661473274,-0.00839545764029026,-0.01189104188233614,-0.01968326047062874,0.009287985973060131,-0.00768952164798975,-0.006747587118297815,-0.015192576684057713,0.0059439437463879585,-0.03907747566699982,-0.03370388224720955,0.010823624208569527,0.030030785128474236,-0.016954148188233376,0.010153808631002903,-0.0019129535648971796,-0.0010368125513195992,-0.07020378112792969,-0.01509217731654644,0.03893765062093735,0.0042321584187448025,-0.04086073487997055,0.01521370094269514,-0.01976006105542183,-0.034709300845861435,-0.001718144747428596,0.008563915267586708,0.0014646499184891582,-0.016961492598056793,-0.03723252937197685,-0.05596533790230751,-0.006290749181061983,-0.03963204845786095,0.000958282093051821,0.026297859847545624,0.05889870598912239,0.06049049645662308,0.009128768928349018,0.01899874024093151,0.029500138014554977,-0.03255850449204445,-0.014448021538555622,-0.000830446311738342,0.021592579782009125,0.010230213403701782,-0.015621529892086983,0.0026587301399558783,-0.010518657974898815,0.004877430386841297,0.018841654062271118,-0.05774471163749695,-0.009701604023575783,-0.006219062022864819,-0.0045958515256643295,0.03915301337838173,-0.044348783791065216,-0.009539077058434486,0.021082710474729538,0.008917471393942833,-0.0015108478255569935,-0.10888588428497314,0.04480331018567085,-0.023761412128806114,0.004769559949636459,0.004751110449433327,0.02701130509376526,0.05998150259256363,-0.0039313193410634995,-0.0014960443368181586,0.014884051866829395,0.022634442895650864,0.03205863758921623,0.018640976399183273,-0.008297506719827652,-0.07364022731781006,-0.007600477896630764,0.012791387736797333,-0.0046448600478470325,-0.04545868933200836,-0.058964382857084274,0.023251060396432877,0.08837821334600449,0.0062740882858633995,-0.11103001236915588,-0.005083962343633175,-0.0357864685356617,0.007737040985375643,0.04149365797638893,0.03077923320233822,0.011953428387641907,-0.009047779254615307,0.04557037353515625,0.0026460422668606043,-0.013037104159593582,-0.02300046943128109,-0.007584933657199144,0.05356200411915779,0.004625278990715742,0.004337450955063105,-0.02585902437567711,0.022370312362909317,0.006375747267156839,0.00854989793151617,-0.021900271996855736,0.0011010454036295414,-0.0002623643958941102,-0.010825110599398613,-0.00877242349088192,-0.007070340681821108,0.013589792884886265,0.09337954968214035,0.03567036613821983,-0.0037927196826785803,-0.020275268703699112,0.0066126612946391106,-0.012999000027775764,0.014955910854041576,-0.004221218638122082,-0.05606240779161453,0.013709161430597305,-0.0015247123083099723,-0.0044413404539227486,-0.005599908530712128,0.028888806700706482,-0.06650607287883759,0.004357055760920048,-0.002606353722512722,0.00916610099375248,-0.012151364237070084,-0.023332923650741577,0.02857978641986847,-0.048840705305337906,0.04703272134065628,0.02549019642174244,0.004972783848643303,0.016336895525455475,0.022083057090640068,-0.031205112114548683,0.0061757611110806465,-0.06464391201734543,0.007443864364176989,0.0008022330584935844,-0.023248620331287384,-0.06895705312490463,0.010134662501513958,-0.005513596348464489,0.050898171961307526,0.014082778245210648,-0.0130308261141181,0.039260383695364,0.038857463747262955,0.007692114450037479,0.008912818506360054,0.013256086967885494,-0.013192323036491871,0.0016976507613435388,-0.018492238596081734,-0.012228874489665031,0.10136673599481583,0.006232929416000843,0.0019067511893808842,-0.00914092268794775,-0.02505653351545334,0.005790282506495714,-0.004868779331445694,-0.01113662589341402,0.026537815108895302,-0.007377559784799814,0.005223941057920456]],"output.bias":[0.051023367792367935],"embeddings.NamaSalesman_Encoded.weight":[[-0.04253241792321205,-0.006318598985671997,0.031527623534202576,0.027133064344525337,-0.0412471741437912,-0.07910797744989395,0.008223534561693668,0.013040591031312943,-0.06105232983827591,0.014228876680135727,0.017361938953399658,0.08596792817115784,0.0389079786837101,0.0922275185585022,0.0025907722301781178,0.012428730726242065,-0.05299322307109833,0.10778693109750748,-0.00041006060200743377,0.08449844270944595,0.006216441746801138,-0.014743559993803501,-0.021448912099003792,0.008853084407746792,0.0017479622038081288,0.11073718219995499,0.08464626967906952,0.0027899197302758694],[-0.0039092241786420345,0.06737075001001358,-0.00866312999278307,0.10207732021808624,0.10577262938022614,0.053436558693647385,-0.07730498164892197,0.06182888150215149,0.023450493812561035,-0.047501493245363235,-0.08612993359565735,-0.12795989215373993,0.11855392158031464,-0.04692913591861725,0.06195589527487755,-0.061509180814027786,0.01332088466733694,-0.10584434866905212,-0.2557532489299774,0.07641647756099701,-0.0623306930065155,0.02971910871565342,-0.037122633308172226,0.008320284076035023,-0.15255862474441528,-0.089859239757061,0.04564136266708374,0.15077565610408783],[0.011258984915912151,0.012423516251146793,0.018415259197354317,0.04416509345173836,0.03520363196730614,0.06876258552074432,-0.00015161342162173241,-0.019202545285224915,-0.007924564182758331,-0.013546869158744812,-0.004682933446019888,0.008862520568072796,-0.018495414406061172,0.012759636156260967,0.05725610628724098,-0.07049644738435745,0.00958952959626913,-0.020098933950066566,-0.05855913460254669,0.03762926161289215,0.0462949313223362,-0.021909089758992195,-0.010336057282984257,0.002521598944440484,-0.07226591557264328,-0.005510004237294197,0.007815172895789146,0.031349461525678635],[-0.03133193030953407,0.029010716825723648,-0.04288935661315918,-0.011353226378560066,0.051118019968271255,0.011800519190728664,0.028138713911175728,-0.031488507986068726,0.016058798879384995,-0.044329848140478134,0.04516731575131416,-0.06888384371995926,0.005587458610534668,0.05764167383313179,0.021160488948225975,-0.029214737936854362,-0.06490769237279892,0.030649295076727867,-0.01646491512656212,0.0025475656148046255,0.04360712692141533,0.02487429790198803,-0.014753766357898712,0.06440082937479019,-0.026565158739686012,-0.002949377754703164,-0.021884186193346977,0.05778418481349945],[-0.0727529376745224,0.0873197540640831,-0.004535428248345852,0.12272068858146667,0.14587506651878357,0.08276844024658203,-0.08025572448968887,-0.03991859778761864,0.10635805875062943,0.010991984978318214,-0.09030891209840775,-0.1018381416797638,0.0862763524055481,-0.08835624158382416,0.07596050202846527,-0.07023174315690994,0.07754775136709213,-0.15942242741584778,-0.13380910456180573,0.06934259086847305,-0.1480688601732254,0.07293884456157684,-0.016474787145853043,-0.011140331625938416,-0.02799079194664955,-0.15860290825366974,-0.021414607763290405,0.054773569107055664],[0.0011647107312455773,0.03218531236052513,-0.015042457729578018,0.03705691546201706,0.015897119417786598,-0.03782699629664421,0.025336571037769318,-0.034620463848114014,-0.03566134721040726,0.059883397072553635,-0.01988994888961315,0.05174936354160309,-0.00469873147085309,0.009302858263254166,0.03700631856918335,-0.01092750858515501,0.002947800327092409,-0.05731024220585823,0.008320762775838375,-0.01964593678712845,0.03535859286785126,0.04114006832242012,-0.0020417594350874424,0.05316263064742088,0.022533273324370384,-0.010450676083564758,-0.024953873828053474,-0.030195599421858788],[0.008413458243012428,0.03238436207175255,-0.04217785224318504,0.02928672544658184,0.02339262142777443,-0.021245066076517105,0.009162777103483677,-0.029745817184448242,-0.03993351384997368,-0.04286258667707443,0.01790059357881546,-0.07203474640846252,0.04020318761467934,0.021084854379296303,0.03645690903067589,-0.026821179315447807,-0.0514565110206604,0.03257168456912041,0.05921311676502228,-0.03153921291232109,0.049079909920692444,-0.1039474681019783,-0.01273637916892767,0.004197278060019016,0.033938925713300705,0.04024696722626686,-0.037311114370822906,-0.020007390528917313],[0.025682609528303146,0.032380361109972,-0.009365673176944256,0.00879743229597807,0.03549971804022789,-0.01738062873482704,-0.08406318724155426,-0.027714697644114494,-0.0775442123413086,-0.05566975846886635,-0.03950704634189606,-0.02336856536567211,-0.02293430268764496,-0.04705836996436119,0.02835463359951973,0.005227343179285526,-0.015379444696009159,0.08658216893672943,-0.036524850875139236,-0.05355280265212059,-0.01187454629689455,0.12920916080474854,0.006179383024573326,0.03278457000851631,0.0007589164888486266,-0.019652055576443672,-0.0034020342864096165,-0.011300411075353622],[0.03598588705062866,0.07596176117658615,0.015860486775636673,0.04799685254693031,0.03613508492708206,0.07550222426652908,0.008797216229140759,0.029500657692551613,0.03140559047460556,-0.03372356295585632,-0.052506379783153534,-0.05733514949679375,-0.00844832044094801,-0.00853982474654913,-0.0006405541207641363,-0.07678436487913132,0.003838416188955307,-0.04815166816115379,-0.05867289379239082,-0.003563198260962963,-0.05264899134635925,0.030743421986699104,-0.07847871631383896,-0.012839984148740768,-0.013487785123288631,-0.0066083683632314205,0.04583219438791275,0.08461510390043259],[0.0303377415984869,0.039430804550647736,0.05221401900053024,-0.011800984852015972,0.01278944592922926,-0.02842305414378643,0.013667930848896503,-0.058432213962078094,-0.08377424627542496,-0.00043006858322769403,0.10944577306509018,0.0645955502986908,-0.07443168014287949,0.037780553102493286,-0.04811207950115204,0.05585818737745285,0.005247316788882017,0.040880441665649414,0.09061701595783234,-0.013489354401826859,0.0838230773806572,-0.030240509659051895,-0.002774539403617382,0.006321512628346682,0.09743805229663849,0.07532501220703125,0.03492482379078865,-0.05844646692276001],[0.041105035692453384,-0.10433347523212433,0.025565871968865395,-0.08256901055574417,-0.08565089106559753,-0.021180294454097748,-0.0834382027387619,0.020987357944250107,-0.005835928954184055,-0.04156630486249924,0.0793142169713974,0.09934519231319427,0.04019470140337944,0.05998707562685013,-0.08737965673208237,0.009291719645261765,0.014989428222179413,0.09070508182048798,0.052434004843235016,-0.03714987635612488,0.1326829344034195,0.055955950170755386,-0.0019338845741003752,0.04629690200090408,0.030734369531273842,0.08645813167095184,-0.006893872749060392,-0.017236439511179924],[-0.023349465802311897,0.009740602225065231,-0.015520580112934113,-0.0328064039349556,0.024162227287888527,-0.004929194226861,-0.043310172855854034,-0.02589230239391327,-0.07427875697612762,-0.058867283165454865,0.02017749473452568,-0.015274764969944954,-0.05121540650725365,0.010489478707313538,-0.01669522002339363,-0.00926569476723671,0.01994001306593418,0.02615790255367756,-0.027083545923233032,-0.0012262967647984624,0.02404969185590744,0.028437430039048195,0.04695935919880867,0.020278368145227432,-0.03982490301132202,-0.08415979146957397,0.02483953908085823,-0.06031304970383644],[-0.021293077617883682,0.05382644385099411,0.010852687060832977,0.030832549557089806,0.03374103456735611,0.08664198964834213,-0.05558774620294571,0.016610674560070038,-0.037225667387247086,-0.04308931156992912,0.0200952161103487,-0.05566822737455368,0.014461247250437737,0.025350917130708694,-0.031377460807561874,-0.062227021902799606,0.025072084739804268,0.01949976570904255,-0.03931906819343567,-0.045319825410842896,0.005767832975834608,0.03785227611660957,-0.032492127269506454,0.03300686925649643,0.02450224943459034,0.01821489818394184,-0.0031162197701632977,0.04324985295534134],[-0.07707785815000534,0.25202253460884094,0.04535042122006416,0.07782019674777985,0.18832126259803772,0.043811336159706116,-0.037263017147779465,0.042211562395095825,0.03383422642946243,-0.08080324530601501,-0.10957444459199905,-0.11484141647815704,0.12156201899051666,-0.15507352352142334,0.14655864238739014,-0.19565926492214203,0.13082237541675568,-0.21349306404590607,-0.12175117433071136,0.012945492751896381,-0.13522478938102722,0.11234810948371887,-0.06302446871995926,-0.055804699659347534,-0.09849075227975845,-0.11039940267801285,0.03781498596072197,0.15355971455574036],[-0.03442816436290741,-0.035616081207990646,0.04589693993330002,0.0551837757229805,0.045742057263851166,0.02073509618639946,-0.0008231276297010481,0.027003096416592598,-0.0048748343251645565,-0.01849544234573841,-0.06195247545838356,-9.071757085621357e-05,0.07454730570316315,0.0005842696409672499,0.001388637931086123,0.001350880367681384,-0.05112258344888687,-0.010488994419574738,-0.041852500289678574,0.01276969350874424,-0.011557530611753464,0.033954378217458725,0.02473021298646927,-0.009018709883093834,-0.013025201857089996,-0.04627649486064911,0.025841817259788513,0.00308632617816329],[-0.027446076273918152,0.06862511485815048,0.04369158297777176,0.10712803900241852,0.03375265747308731,0.07817065715789795,0.0035773138515651226,0.02304820902645588,0.07349203526973724,-0.0597018301486969,-0.05498560890555382,-0.07006991654634476,0.04642273858189583,-0.055512845516204834,0.06570955365896225,-0.09536849707365036,0.03184325993061066,-0.05044899508357048,-0.06391454488039017,0.035281844437122345,-0.04603249207139015,0.08926060050725937,0.008179091848433018,0.039848752319812775,-0.04744735732674599,-0.10994711518287659,-0.014869915321469307,-0.025932451710104942],[-0.03591666370630264,0.03403853625059128,-0.0044399891048669815,-0.09189493954181671,0.008140193298459053,-0.016615131869912148,-0.043076276779174805,-0.031131025403738022,-0.12468639016151428,0.04601550102233887,-0.09733834862709045,0.008833836764097214,-0.04152706637978554,0.05635533854365349,0.011476157233119011,-0.006692623719573021,0.022506164386868477,0.042873237282037735,0.07631739228963852,-0.07940579205751419,0.020518004894256592,0.0012386594898998737,0.06642653793096542,0.06079433113336563,-0.049604516476392746,-0.09060207009315491,0.07235848158597946,0.019168362021446228],[-0.06827425956726074,0.2626153528690338,0.01905563846230507,0.16041556000709534,0.36734017729759216,0.15520556271076202,-0.10831975936889648,0.04361433535814285,0.0652884989976883,-0.09293678402900696,-0.17122821509838104,-0.22440002858638763,0.07525018602609634,-0.18707606196403503,0.21198712289333344,-0.16945543885231018,0.048199936747550964,-0.23862481117248535,-0.24367676675319672,-0.020077766850590706,-0.1150415763258934,0.1102830246090889,-0.026372244581580162,0.004667033441364765,-0.07818695902824402,-0.13531124591827393,-0.05369023606181145,0.07380160689353943],[0.0398416668176651,-0.01347402110695839,0.05664469301700592,-0.06554154306650162,-0.10665913671255112,-0.009804142639040947,0.07234607636928558,-0.06914415955543518,-0.1018560379743576,-0.013450231403112411,0.04152936860918999,0.05705748498439789,-0.06613584607839584,0.045108914375305176,-0.058053355664014816,0.018267463892698288,0.050341855734586716,0.06523823738098145,0.022915352135896683,-0.04320008307695389,0.053208909928798676,-0.039820194244384766,-0.019238334149122238,0.08011484891176224,0.0415448322892189,0.04263412207365036,0.06423189491033554,-0.033664632588624954],[-0.061187464743852615,0.059546153992414474,0.0499294251203537,0.1296616494655609,0.147249236702919,0.04843428358435631,-0.003703263821080327,0.00529804453253746,-0.013007867150008678,-0.06207350268959999,-0.05673304200172424,-0.09707005321979523,0.05218355357646942,-0.14416441321372986,0.04231199249625206,-0.001355634187348187,0.035024505108594894,-0.12421783059835434,-0.06046593189239502,0.0428282730281353,-0.15437188744544983,0.043231721967458725,-0.05465437099337578,0.016529418528079987,-0.12407334893941879,-0.10556023567914963,0.024208318442106247,0.01645946502685547],[-0.02382545918226242,0.060146018862724304,0.048726677894592285,-0.04706055298447609,0.003994444850832224,-0.0256010964512825,-0.023671569302678108,-0.020425044000148773,0.012262236326932907,-0.015733541920781136,0.0235123448073864,-0.0528678372502327,0.014218547381460667,-0.036002326756715775,-0.06099593639373779,-0.04394961893558502,-0.0014120403211563826,0.05841594934463501,-0.05673942342400551,-0.028799306601285934,0.0012962992768734694,0.088715560734272,-0.05464283749461174,0.02602054364979267,0.01889229752123356,0.017234940081834793,-0.019448883831501007,-0.028759967535734177],[0.005579997785389423,0.10959552228450775,0.03199690580368042,-0.06426550447940826,0.0021386914886534214,0.005114387720823288,0.06054041162133217,-0.03220532462000847,-0.03775310143828392,0.03758929297327995,-0.0374617762863636,0.013057857751846313,-0.013993700966238976,0.03999606892466545,-0.009496882557868958,-0.07014425098896027,-0.00645138556137681,0.06868906319141388,0.06334999948740005,-0.025309575721621513,0.02501087449491024,-0.06336288154125214,-0.05607021972537041,0.013233854435384274,0.028607908636331558,0.014962702058255672,-0.051179978996515274,0.04626113921403885],[0.07668200135231018,0.06177787855267525,0.007998485118150711,-0.026074009016156197,-0.0239458866417408,0.03700929880142212,0.005103117320686579,0.013261284679174423,-0.06738224625587463,0.04633370041847229,-0.051986414939165115,-0.011499616317451,-0.019913792610168457,0.12190790474414825,-0.08153601735830307,-0.01695273444056511,0.016501670703291893,-0.019390510395169258,-0.029172256588935852,-0.014501744881272316,-0.002159432740882039,-0.001498698373325169,0.03259052708745003,-0.05098305270075798,0.061742812395095825,0.0193910151720047,0.038296256214380264,0.004772696644067764],[-0.01397506333887577,0.15144136548042297,0.015039234422147274,0.06907432526350021,0.14279331266880035,0.10727446526288986,-0.027727490290999413,0.03387729451060295,0.009115822613239288,-0.06370347738265991,-0.07142755389213562,-0.0499495193362236,0.033451613038778305,-0.05680977553129196,0.10195542126893997,-0.10637609660625458,0.043373119086027145,-0.054704368114471436,-0.057953767478466034,0.018601296469569206,-0.09921576827764511,0.01732853427529335,-0.06324611604213715,0.015024050138890743,-0.04657701030373573,-0.06618849188089371,0.025294801220297813,0.002585145877674222],[0.04551076889038086,0.05763211101293564,0.010502723045647144,-0.05008983612060547,-0.00032227247720584273,-0.06165556609630585,0.052575502544641495,-0.06214199587702751,-0.03393565118312836,0.04923480376601219,0.04838908836245537,0.0020823990926146507,0.00488840788602829,-0.003367458702996373,-0.046997323632240295,-0.01660485379397869,0.006229849066585302,0.07034435868263245,0.055018890649080276,-0.0848698616027832,0.048797715455293655,0.0014672618126496673,-0.018333781510591507,0.01858634315431118,0.05386855825781822,0.06437493115663528,0.06627549976110458,-0.012303748168051243],[-0.014078550040721893,0.10707085579633713,-0.027216272428631783,0.186625137925148,0.22236797213554382,0.08989482372999191,-0.03723809868097305,0.028902284801006317,0.006423544138669968,-0.08011917769908905,-0.17357172071933746,-0.12717461585998535,0.08377335220575333,-0.27001598477363586,0.08306680619716644,-0.03808223456144333,0.06886469572782516,-0.2002411186695099,-0.22370241582393646,0.04793620482087135,-0.1747494637966156,0.10101407021284103,-0.021632902324199677,-0.035219766199588776,-0.04077492281794548,-0.22427190840244293,-0.07492828369140625,0.10693501681089401],[-0.06109170615673065,0.10762927681207657,0.007215824443846941,0.019427821040153503,0.07012821733951569,0.03983120992779732,0.015405760146677494,-0.019895585253834724,-0.10193273425102234,0.002546277828514576,0.026279456913471222,-0.06574174761772156,-0.009088113903999329,-0.09707087278366089,0.08937717974185944,-0.03490278869867325,0.03665320202708244,-0.005998371168971062,-0.024358132854104042,0.0015493251848965883,-0.10714646428823471,-0.010591914877295494,0.003222474129870534,0.019247163087129593,-0.005282941274344921,0.05067511275410652,-0.009836883284151554,0.030845850706100464],[0.012731069698929787,0.029120158404111862,-0.03544682636857033,0.10028401762247086,0.22254851460456848,0.07081481069326401,-0.020001018419861794,0.018211137503385544,0.11325691640377045,-0.0982028990983963,-0.12781932950019836,-0.15778878331184387,0.10105226188898087,-0.1133146658539772,0.03223411366343498,-0.10647927969694138,0.01888209767639637,-0.15093007683753967,-0.178375706076622,0.08010049909353256,-0.1836322844028473,0.11842136085033417,-0.018263693898916245,-0.021044177934527397,-0.20835824310779572,-0.09308378398418427,-0.0675773099064827,0.07281219959259033],[0.13147132098674774,-0.11639988422393799,-0.06406055390834808,-0.10889969021081924,-0.14166346192359924,-0.12658166885375977,-0.12046714127063751,-0.011877075769007206,-0.004096427001059055,0.016505328938364983,0.12918652594089508,0.06494034081697464,-0.07930410653352737,0.12489926815032959,-0.14145387709140778,0.05294371023774147,-0.14560799300670624,0.17486895620822906,0.16261780261993408,-0.06512091308832169,0.05106044560670853,-0.012197890318930149,-0.06095552444458008,0.031946975737810135,0.14430175721645355,0.06301413476467133,-0.0036318146158009768,0.021045634523034096],[-0.037034764885902405,0.1664409190416336,0.026408346369862556,0.18482328951358795,0.24620603024959564,0.11627533286809921,-0.008503667078912258,0.022254571318626404,0.03219440579414368,-0.04553119093179703,-0.06717275828123093,-0.17843881249427795,0.09001050889492035,-0.10157757252454758,0.07384201884269714,-0.018362872302532196,0.017586413770914078,-0.14668385684490204,-0.14558711647987366,-0.01720697619020939,-0.18297606706619263,0.001893310691229999,-0.03808564320206642,0.00898755807429552,-0.1453026831150055,-0.0725245475769043,-0.07094493508338928,0.052022870630025864],[-0.014883296564221382,0.12334754317998886,-0.017450861632823944,0.17151150107383728,0.1669274866580963,0.08682439476251602,-0.1713494509458542,-0.03243444114923477,0.023474756628274918,-0.08043038845062256,-0.13903750479221344,-0.16871732473373413,0.07285477221012115,-0.20414313673973083,0.15084226429462433,-0.03463384881615639,-0.009249930270016193,-0.19994987547397614,-0.16870397329330444,0.09077510982751846,-0.19063518941402435,0.09458936005830765,-0.07077433168888092,0.05489504709839821,-0.07168345153331757,-0.038706522434949875,-0.049597132951021194,0.07722750306129456],[0.012554478831589222,0.048788994550704956,-0.005081685725599527,0.04010394960641861,0.07271714508533478,0.049644727259874344,-0.039096247404813766,-0.014111099764704704,0.03497590124607086,-0.03888816386461258,-0.0326351672410965,0.0075838337652385235,0.09488248825073242,-0.02104596421122551,-0.014616921544075012,-0.031070642173290253,0.005006362218409777,-0.0825381651520729,-0.036173515021800995,-0.047118909657001495,-0.07989449054002762,0.05562606081366539,-0.005750286392867565,-0.022985050454735756,-0.07755259424448013,-0.024877890944480896,-0.05363360047340393,0.08151360601186752],[-0.017278289422392845,0.11410506814718246,0.015719041228294373,0.21745286881923676,0.13671308755874634,0.1659773588180542,-0.042215146124362946,0.06637194752693176,0.10108970105648041,-0.08589909970760345,-0.12295494973659515,-0.16417889297008514,0.09363048523664474,-0.170515239238739,0.17041194438934326,-0.05887603387236595,0.04151181876659393,-0.15748579800128937,-0.11543001979589462,0.12495424598455429,-0.1430262178182602,0.1188024953007698,0.003879152238368988,-0.01107049360871315,-0.13315905630588531,-0.2032518833875656,-0.08429033309221268,0.04367492347955704],[-0.03913227841258049,-0.08837196230888367,0.0249113030731678,-0.01013798825442791,0.02347581647336483,0.0065218983218073845,0.02092481590807438,0.014683324843645096,-0.00966209452599287,-0.037490420043468475,-0.004532762337476015,-0.016560455784201622,-0.013877170160412788,-0.04603801295161247,0.07073786854743958,0.01380241010338068,0.022664479911327362,0.041336748749017715,-0.03297055512666702,0.052372731268405914,-0.0266580693423748,-0.014054156839847565,-0.01892596110701561,0.024011414498090744,-0.04517102614045143,3.488693619146943e-05,0.04661620780825615,0.028872530907392502],[-0.05751693993806839,-0.01921772211790085,-0.033843185752630234,0.029056675732135773,0.0012064076727256179,-0.011433912441134453,0.003116643987596035,-0.04098431020975113,-0.06830309331417084,-0.04051468148827553,-0.03843611478805542,0.025075891986489296,0.0015033585950732231,-0.0034442441537976265,-0.05683600902557373,0.015658987686038017,0.02633802220225334,0.05994712933897972,0.036101166158914566,-0.008167617954313755,0.054346390068531036,-0.08873381465673447,-0.025362569838762283,-0.028128283098340034,-0.033868029713630676,0.003362818621098995,-0.014584075659513474,0.003066637087613344],[-0.026212748140096664,0.10997112840414047,0.06550345569849014,0.014834418892860413,0.07126195728778839,0.06697726994752884,-0.04700935259461403,0.047637127339839935,-0.05116225406527519,-0.02936561033129692,-0.05961175635457039,-0.0899946391582489,-0.004370946902781725,-0.09513670951128006,0.011775183491408825,-0.037640199065208435,0.0632619708776474,-0.06875438243150711,-0.025600073859095573,-0.03322422131896019,-0.07135090231895447,0.07077837735414505,0.023568978533148766,0.07899821549654007,-0.07246454060077667,-0.006790603511035442,0.09109768271446228,0.10075676441192627],[-0.047765202820301056,0.05161882936954498,-0.046323612332344055,-0.017037469893693924,0.0226165559142828,-0.015396719798445702,0.0423353873193264,0.08822068572044373,-0.02613011933863163,-0.04325903579592705,0.056286703795194626,-0.02289912849664688,-0.000282268418231979,-0.020687883719801903,-0.027448339387774467,-0.008894555270671844,0.0634072870016098,-0.005354848224669695,-0.03630252182483673,-0.01220182329416275,0.03440237045288086,0.00013555122131947428,-0.05188305675983429,0.06186741217970848,0.0144242187961936,-0.009502070024609566,0.0031315647065639496,0.016381192952394485],[-0.05546867102384567,-0.02453317865729332,0.11509010195732117,-0.09780415892601013,-0.06028566136956215,-0.08747497946023941,0.026190171018242836,-0.025142529979348183,0.03718671202659607,0.0374118834733963,0.07244647294282913,0.03239713981747627,-0.041594214737415314,0.09774094820022583,-0.08234941959381104,-0.02715233340859413,-0.06553630530834198,0.06386769562959671,0.11979684978723526,-0.0848827138543129,0.06259796768426895,0.031278885900974274,-0.03884391114115715,0.0201742984354496,0.07202598452568054,0.04258172586560249,0.018327945843338966,-0.04927146062254906],[0.028389841318130493,0.00736292265355587,0.0008250779937952757,0.05708697810769081,0.0029330113902688026,-0.027635810896754265,-0.005703962408006191,-0.03386562690138817,-0.026022976264357567,-0.013774147257208824,-0.0436379611492157,-0.07430073618888855,0.02167818322777748,0.04635382071137428,-0.026842132210731506,-0.051453568041324615,-0.038670994341373444,0.036583688110113144,0.000715377158485353,0.0253462977707386,-0.036190252751111984,-0.024561649188399315,-0.07381501793861389,0.03769803047180176,0.07174156606197357,0.03215688839554787,0.019576678052544594,-0.042626138776540756],[0.06463901698589325,-0.024624289944767952,0.013592306524515152,-0.013303153216838837,-0.009698987938463688,0.03596993908286095,0.024603044614195824,0.07477596402168274,-0.026597483083605766,0.027597876265645027,0.07112923264503479,0.04717924818396568,0.01795971393585205,0.07225204259157181,-0.05495285615324974,0.07001999765634537,-0.022992804646492004,0.03472648561000824,-0.0028268524911254644,-0.012625593692064285,0.01049718726426363,-0.00370239675976336,-0.030901577323675156,-0.05325958877801895,0.047431740909814835,-0.00969685148447752,0.02065855637192726,0.017653027549386024],[-0.06316444277763367,0.11893874406814575,-0.025635477155447006,0.0514046810567379,0.13760583102703094,0.10932774096727371,-0.03956206887960434,0.005082146264612675,0.09108326584100723,-0.1025913655757904,-0.12948110699653625,-0.11479852348566055,0.042044464498758316,-0.10506939142942429,0.0915563702583313,-0.06032136082649231,0.026538992300629616,-0.15541833639144897,-0.1184813380241394,0.07543125003576279,-0.20930173993110657,0.06890542060136795,-0.010360856540501118,-0.02645711600780487,-0.07061946392059326,-0.18148617446422577,-0.03867615386843681,0.03592641279101372],[-0.03707879036664963,0.03157459944486618,0.06815870851278305,0.04698586091399193,0.07647710293531418,0.06645829230546951,0.0363246388733387,0.015331845730543137,0.010805814526975155,-0.021487124264240265,-0.04159931838512421,-0.111300989985466,0.06088738143444061,-0.06299415975809097,0.08077360689640045,-0.04309529811143875,0.05049111694097519,-0.06804398447275162,-0.08834028244018555,0.03777995705604553,-0.0685618445277214,0.044439174234867096,0.009001952596008778,-0.006273169536143541,0.037466567009687424,-0.09506496042013168,0.010583432391285896,0.057023681700229645],[0.07242954522371292,-0.1099592000246048,-0.027787774801254272,-0.09519986063241959,-0.12315745651721954,-0.13904444873332977,0.07522918283939362,0.06739023327827454,0.04509083181619644,0.04625183343887329,0.09259376674890518,0.029870985075831413,-0.012098533101379871,0.08715839684009552,-0.04642483964562416,0.12507356703281403,-0.10794667899608612,0.0941777303814888,0.1146351546049118,-0.0648626908659935,0.12511776387691498,0.0515110120177269,0.03261060267686844,0.06093059107661247,0.08560987561941147,0.11479734629392624,-0.039717838168144226,-0.08195909857749939],[-0.005724520422518253,-0.06888909637928009,-0.010654924437403679,-0.07411856949329376,-0.07935934513807297,-0.04011308774352074,0.06827633082866669,-0.02599446102976799,-0.035705696791410446,0.03082050383090973,0.10188311338424683,0.09082470834255219,-0.01899692788720131,0.057167891412973404,-0.09620262682437897,0.01933172158896923,-0.07540997862815857,0.10822007805109024,0.045619890093803406,-0.049909256398677826,0.11726560443639755,-0.005013577174395323,-0.025999151170253754,0.009789112024009228,0.07655330747365952,0.07560861110687256,0.06954819709062576,-0.060824256390333176],[-0.04131988063454628,0.07430419325828552,-0.040494393557310104,0.10609079897403717,0.10526812076568604,0.07370398193597794,-0.08353563398122787,0.06284638494253159,-0.0202493853867054,-0.06625786423683167,-0.1512598693370819,-0.19282741844654083,0.12906265258789062,-0.05399875342845917,0.06763502210378647,-0.005985123571008444,0.10128616541624069,-0.14307880401611328,-0.10155073553323746,0.07612727582454681,-0.14906910061836243,0.002980602905154228,-0.0030399379320442677,0.02491140365600586,-0.07045316696166992,-0.08049893379211426,-0.03136046975851059,0.010722448118031025],[0.022529052570462227,0.0689999908208847,0.11621686816215515,-0.05968553572893143,-0.0422130785882473,0.029212865978479385,0.031291499733924866,0.027774496003985405,-0.11693431437015533,0.0001733692770358175,0.08987283706665039,0.05289507284760475,-0.09554093331098557,0.07141925394535065,-0.06677006185054779,-0.03613142669200897,0.10115639120340347,0.09591369330883026,-0.03150838613510132,-0.1539301574230194,0.08499770611524582,0.0196192916482687,-0.029483234509825706,0.004745513666421175,0.061011768877506256,0.049935273826122284,0.06722424924373627,-0.012713367119431496],[-0.04545346274971962,0.09323415905237198,0.008796646259725094,0.12349588423967361,0.21945862472057343,0.1493275761604309,-0.022087620571255684,-0.023457206785678864,0.025234175845980644,-0.03508602827787399,-0.12298035621643066,-0.2595641314983368,-0.012233584187924862,-0.19536106288433075,0.16863763332366943,-0.20025719702243805,0.1408727914094925,-0.18375396728515625,-0.19644691050052643,0.03889445960521698,-0.275606244802475,0.08499645441770554,-0.04765062406659126,0.013896839693188667,-0.10166554152965546,-0.1491161733865738,-0.038690704852342606,0.17846940457820892],[0.06629347801208496,0.07594320178031921,0.04700282961130142,-0.12091641873121262,-0.037043649703264236,-0.031571634113788605,0.0557975135743618,-0.030627010390162468,-0.060748230665922165,0.05249469354748726,0.052939314395189285,0.05025475472211838,-0.03167864307761192,0.024106962606310844,0.0023773720022290945,0.09308202564716339,-0.0025487185921519995,0.016096187755465508,0.025698881596326828,-0.0856962651014328,0.06610558927059174,-0.009253209456801414,0.019369974732398987,-0.05340232700109482,-0.007547150366008282,0.06091243401169777,-0.027007991448044777,-0.04419668763875961],[-0.021028073504567146,-0.011782352812588215,-0.0422138087451458,-0.0035229732748121023,0.06259559094905853,0.02935270592570305,0.0870542973279953,0.03658992797136307,-0.0529644675552845,0.036794137209653854,-0.022189302369952202,-0.03387244790792465,0.011476504616439342,-0.03939035162329674,0.0066545503214001656,-0.05633700266480446,0.018700171262025833,0.018761049956083298,-0.004763701930642128,-0.00064179947366938,0.00891706719994545,0.029937876388430595,-0.0650334432721138,0.06568340212106705,-0.041536491364240646,0.02556898631155491,-0.00841788575053215,0.0493401400744915],[0.004844138864427805,0.05913517624139786,-0.03789924830198288,0.014913247898221016,0.06743501871824265,0.05030164495110512,0.038359254598617554,0.015968970954418182,0.012890012934803963,-0.05660318210721016,0.009017465636134148,-0.06666667759418488,0.05028052628040314,-0.045381687581539154,0.014818647876381874,-0.014578321948647499,0.038658853620290756,0.03347178176045418,-0.05739492550492287,-0.03706933557987213,-0.018818387761712074,-0.0286970566958189,-0.020513467490673065,-0.039769820868968964,-0.043656643480062485,-0.0015636342577636242,0.02236691489815712,0.04717237129807472],[-0.03555680438876152,0.17212101817131042,-0.014322430826723576,0.10399015247821808,0.13327467441558838,0.03708544373512268,-0.08382140100002289,0.0005084321019239724,0.014633969403803349,-0.030702348798513412,-0.18862174451351166,-0.1076032966375351,0.031392235308885574,-0.11740867048501968,0.05896243825554848,-0.03799735754728317,0.07016405463218689,-0.2593952417373657,-0.07718412578105927,0.031577423214912415,-0.15211975574493408,-0.0076236361637711525,0.003885252634063363,0.014471261762082577,-0.09757532179355621,-0.12289652973413467,-0.026695583015680313,0.016712365671992302],[0.01475492026656866,0.017606019973754883,0.011098123155534267,0.052442893385887146,0.05178941786289215,-0.015024200081825256,-0.02611711621284485,0.03260357305407524,0.034008368849754333,-0.011999509297311306,-0.014516612514853477,-0.017514126375317574,0.03206619247794151,-0.048619043081998825,0.07904860377311707,-0.0313606932759285,0.008272361941635609,-0.0755639523267746,-0.0002034116769209504,0.006941888947039843,-0.10385651141405106,-0.005931894760578871,0.012482083402574062,-0.006982170976698399,-0.027236483991146088,-0.06533313542604446,-0.02468937262892723,0.03601604700088501],[-0.055721014738082886,0.02650454454123974,0.021882232278585434,0.06052958220243454,0.13937635719776154,0.022175025194883347,-0.016974419355392456,0.0168487299233675,-0.01801879145205021,-0.08801808953285217,-0.039870306849479675,-0.0468023419380188,-0.0013706209138035774,-0.07683421671390533,0.04952862486243248,0.00569890346378088,0.044035281985998154,-0.07531984150409698,-0.11516498029232025,0.11544978618621826,-0.07372023910284042,0.011510400101542473,0.03734222427010536,0.037806134670972824,-0.025332726538181305,-0.1408838927745819,-0.09281452745199203,-0.02938368171453476],[0.004238073248416185,0.025978567078709602,0.001685815048404038,-0.040180306881666183,0.023237669840455055,0.007316247094422579,0.0010301681468263268,-0.028024055063724518,-0.0428708977997303,-0.03178830444812775,0.027171341702342033,-0.008994434960186481,0.023171134293079376,-0.021481819450855255,-0.03962006792426109,0.005887637846171856,-0.009826176799833775,0.024826860055327415,0.013067428022623062,0.0371382050216198,0.051229871809482574,0.004722984507679939,0.004009638447314501,0.015598577447235584,0.015523325651884079,0.04345862567424774,0.046943549066782,-0.0289881844073534],[0.023107456043362617,0.021176058799028397,-0.09816386550664902,0.07740043103694916,0.018093129619956017,-0.024309765547513962,-0.028627514839172363,-0.07571221143007278,0.024839621037244797,-0.0578475147485733,-0.026883121579885483,-7.614935748279095e-05,0.028760889545083046,0.007673947606235743,0.03788801655173302,-0.018747923895716667,0.05835941806435585,0.0006421568687073886,-0.04970225691795349,-0.0029148210305720568,-0.04271988570690155,-0.07441871613264084,-0.042554691433906555,-0.029088137671351433,-0.050290390849113464,-0.06680914759635925,-0.21382702887058258,0.07753769308328629],[0.003988513723015785,-0.002159658120945096,-0.0006743322592228651,-0.004030083771795034,-0.0017248739022761583,0.009383845143020153,0.017430448904633522,0.0007788701332174242,-0.0007621350232511759,-0.01756981573998928,0.006159237585961819,0.008398876525461674,0.009140563197433949,0.0025669338647276163,0.006139914970844984,0.008831127546727657,0.009208853356540203,-0.01583835482597351,0.006144289392977953,-0.020853469148278236,-0.008909148164093494,-0.0025158245116472244,0.01396915689110756,0.010785224847495556,-0.004021471831947565,-0.0027569783851504326,-0.007296338677406311,-0.013322850689291954]],"embeddings.Kecamatan_Encoded.weight":[[0.01760016940534115,-0.0010067354887723923,-0.010051668621599674,-0.0016713193617761135,0.0047723944298923016,0.025604045018553734,0.000536651408765465,0.013519486412405968,0.025696758180856705,0.003675661748275161,0.01784955896437168,0.0008751465938985348,0.03153921291232109,-0.006025456823408604,-0.03398233652114868,0.004152337554842234,0.024471290409564972,-0.006364970002323389,0.007424700073897839,0.01898680254817009,0.008107844740152359,0.022707121446728706,0.017995616421103477,-0.023084107786417007,0.021716728806495667,-0.0011883411789312959,0.018261034041643143,0.0018498561112210155,-0.0445847362279892,-0.00899531226605177,-0.014307795092463493,0.01326387282460928,0.036925558000802994,0.03516215831041336,0.018362417817115784,-0.01162044145166874,-0.018444735556840897,-0.00975177064538002,0.022304633632302284,-0.009701138362288475,0.03229295089840889,0.017810555174946785,0.022926483303308487,-0.00939318910241127,0.006091936491429806,-0.003913795575499535,0.01636348105967045,0.0032111473847180605,-0.02142026647925377,0.012236439622938633],[-0.022227555513381958,-0.018054379150271416,0.01440947875380516,0.10622570663690567,0.0010188287124037743,0.006585970055311918,-0.04891987144947052,0.035809412598609924,-0.030707620084285736,-0.06205816939473152,-0.10064133256673813,0.0010471893474459648,-0.048698194324970245,0.03986934572458267,0.1718294322490692,-0.14043976366519928,-0.03529862314462662,-0.0006134253344498575,-0.020389560610055923,-0.045052386820316315,0.16007398068904877,0.00574108911678195,-0.18371343612670898,0.0046617076732218266,0.01492681261152029,0.030884210020303726,0.020780958235263824,0.03478747606277466,0.016069985926151276,0.18332533538341522,0.03762097656726837,0.002029094146564603,-0.12871666252613068,-0.04026802256703377,-0.02220347709953785,-0.01265816017985344,-0.008716738782823086,0.07675077021121979,0.0019102484220638871,0.08682884275913239,0.1307162195444107,0.09797780215740204,0.07053708285093307,9.524528286419809e-05,-0.011243344284594059,-0.015519987791776657,0.0314098559319973,0.038278013467788696,-0.0571693517267704,-0.07811339944601059],[0.029022978618741035,-0.055600084364414215,0.0335499569773674,0.04045950621366501,-0.035894304513931274,0.04492589831352234,0.001519619021564722,-0.020715506747364998,0.017148083075881004,0.016138341277837753,0.00707297632470727,-0.00946754775941372,0.04980536177754402,-0.011393404565751553,0.013534213416278362,0.000811148842331022,-0.08022002875804901,-0.016584699973464012,0.026493728160858154,0.07191348820924759,-0.016782686114311218,-0.04221148043870926,-0.005492085590958595,-0.028123540803790092,-0.04652111604809761,-0.05185742676258087,0.04725198447704315,-0.011631130240857601,0.047519899904727936,-0.13990101218223572,0.033801354467868805,0.025026509538292885,-0.010643369518220425,0.024588923901319504,0.019928384572267532,0.010524505749344826,0.06631025671958923,-0.04899774491786957,-0.043431393802165985,-0.14295972883701324,0.006226276513189077,-0.001690010423772037,0.04308074340224266,-0.011625322513282299,0.05800898000597954,-0.030944373458623886,0.021333223208785057,-0.04182134196162224,0.06184710934758186,0.043817974627017975],[-0.010226716287434101,-0.0023902161046862602,-0.030478574335575104,0.028618697077035904,-0.021204985678195953,0.02970045804977417,0.041644640266895294,-0.03182251378893852,0.010785302147269249,-0.015482233837246895,-0.031417205929756165,-0.02034337818622589,0.023698244243860245,0.04056373983621597,0.0009369011968374252,0.04059053957462311,0.023031046614050865,0.021779844537377357,0.014576630666851997,0.00674850819632411,-0.052832987159490585,0.05123022571206093,-0.03864050284028053,0.04896250739693642,0.04518701136112213,0.03764895722270012,-0.02663997747004032,-0.026067186146974564,0.03950629383325577,0.03957061097025871,-0.055330004543066025,0.04222626984119415,-0.04586998000741005,0.00946629699319601,0.0010348772630095482,-0.03221150487661362,0.05884433537721634,-0.014333129860460758,-0.031882017850875854,-0.029551880434155464,-0.07232589274644852,0.03003506176173687,-0.037997934967279434,-0.05044920742511749,0.0086103780195117,-0.02396184392273426,0.03411726653575897,0.0013631340116262436,0.03950561583042145,-0.024549737572669983],[0.008566885255277157,0.059887878596782684,-0.017010372132062912,-0.00021731527522206306,-0.002525705611333251,-0.04262536019086838,-0.01917378418147564,-0.014301884919404984,0.03563535585999489,-0.02888600341975689,-0.0027000820264220238,-0.03958642855286598,-0.02925325743854046,0.0680713877081871,0.058537259697914124,-0.03274896740913391,0.06637080758810043,-0.010492291301488876,-0.016502104699611664,-0.035570040345191956,0.04589315131306648,0.016597649082541466,-0.009933571331202984,-0.010717365890741348,0.002912092488259077,0.07707753032445908,0.05806688591837883,0.03831053897738457,-0.061576105654239655,0.08986665308475494,-0.036957353353500366,-0.024055466055870056,-0.08902419358491898,0.04458483308553696,-0.0012100780149921775,0.026644984260201454,-0.03256016597151756,0.04902030527591705,0.041562363505363464,0.007112401537597179,0.036015622317790985,0.054551512002944946,0.03576701134443283,-0.042893409729003906,-0.02544330433011055,0.033585961908102036,-0.083809494972229,0.023865345865488052,-0.008937609381973743,-0.044448260217905045],[0.1532192826271057,-0.14063458144664764,0.049766141921281815,-0.09663472324609756,-0.00785677321255207,0.1308143585920334,-0.050261642783880234,0.017446359619498253,0.02657812088727951,-0.02228458598256111,-0.030678046867251396,0.010884549468755722,-0.02869373932480812,-0.04572935402393341,-0.0706845223903656,0.05918572098016739,-0.030600374564528465,-0.08005590736865997,0.11703599989414215,0.02610922046005726,-0.039563022553920746,0.02994191274046898,0.2688693106174469,-0.0600423701107502,0.006493940483778715,-0.07903681695461273,-0.05389575660228729,-0.14815866947174072,-0.004001986235380173,-0.1099911481142044,0.01843446120619774,0.051899392157793045,0.12720301747322083,-0.0866694375872612,-0.014403118751943111,0.04717390611767769,-0.07743341475725174,-0.060326721519231796,0.0002640067832544446,-0.013615267351269722,-0.06163235008716583,-0.07412160933017731,-0.1136166974902153,-0.02974626049399376,0.018646713346242905,-0.04830551892518997,-0.0017584689194336534,-0.15555235743522644,0.035789381712675095,0.009517647325992584],[-0.07148682326078415,-0.012450501322746277,0.08398453891277313,-0.03603621944785118,0.029119404032826424,0.087677963078022,-0.024766650050878525,-0.02268293872475624,0.0605723075568676,-0.052314065396785736,-0.01795158162713051,0.00932398997247219,-0.028366226702928543,-0.012695075012743473,-0.09273700416088104,0.019124584272503853,-0.014105561189353466,-0.07267265766859055,0.06505334377288818,-0.05700679495930672,-0.07276961952447891,0.010493536479771137,-0.0014585996977984905,-0.07085926830768585,-0.023617353290319443,-0.06945210695266724,0.0364394448697567,-0.09629899263381958,0.007948561571538448,-0.13140490651130676,-0.03118600882589817,0.0013310651993378997,0.10663197934627533,-0.0533536933362484,-0.10431496798992157,-0.0067007411271333694,-0.01568702794611454,-0.009098327718675137,-0.04747223109006882,0.023998335003852844,0.032238688319921494,-0.11321400105953217,-0.0436532124876976,0.017549119889736176,-0.012300696223974228,-0.04105256497859955,0.07125533372163773,-0.10930438339710236,-0.0069687641225755215,0.027082383632659912],[0.016375809907913208,0.011713884770870209,-0.029217850416898727,0.047524500638246536,-0.020340554416179657,0.021098582074046135,0.008537355810403824,0.05452943965792656,-0.04162946715950966,0.0410793200135231,0.01667669042944908,0.007697136141359806,0.06302186846733093,-0.014056872576475143,-0.037621427327394485,0.01237503718584776,-0.0003052281099371612,0.052878767251968384,0.051556751132011414,-0.017689967527985573,-0.005208219401538372,0.01958652026951313,0.031229551881551743,0.030607182532548904,-0.024323906749486923,-0.033870525658130646,0.008504966273903847,-0.002965419553220272,0.006221836898475885,-0.02903103083372116,-0.014643379487097263,0.002544763730838895,0.042836956679821014,-0.013402056880295277,0.012398703955113888,0.000852672616019845,-0.003376392647624016,-0.09326253086328506,-0.0031599123030900955,-0.06418624520301819,0.029928814619779587,-0.051454007625579834,0.008155965246260166,-0.08596718311309814,0.04564166069030762,-0.09166927635669708,0.03412613645195961,-0.01155854295939207,0.012821526266634464,0.019476570188999176],[0.10781735181808472,-0.16593250632286072,0.07769064605236053,-0.09942255169153214,0.057901494204998016,0.15218962728977203,-0.026044130325317383,-0.06878950446844101,0.1231805682182312,0.029065055772662163,-0.006480115931481123,0.05963990092277527,-0.00999574363231659,-0.10118990391492844,-0.08105285465717316,0.0396118126809597,-0.17989127337932587,-0.022474151104688644,0.11837862432003021,0.02731366828083992,-0.16044336557388306,0.026071906089782715,0.12424495816230774,-0.023093601688742638,0.08197664469480515,-0.01903112232685089,-0.02946402318775654,-0.2767525911331177,0.07862891256809235,-0.22011858224868774,0.02485423907637596,0.10680834203958511,0.11772792786359787,-0.06753861159086227,-0.05693940445780754,0.01924094371497631,0.0176922008395195,-0.09528499841690063,-0.025649575516581535,-0.03294169530272484,-0.08955112844705582,-0.13915576040744781,-0.18026116490364075,-0.014301067218184471,0.1133144199848175,0.014471485279500484,0.08347009867429733,-0.1921623796224594,0.05985825136303902,0.19785915315151215],[-0.05055413767695427,0.02191142737865448,-0.006618914660066366,0.012458675540983677,-0.06961263716220856,0.057532697916030884,0.04960818588733673,-0.0071476600132882595,0.012506348080933094,-0.013143333606421947,-0.0356949083507061,-0.06414467096328735,0.04733060300350189,-0.013472091406583786,0.06142079457640648,-0.009080346673727036,0.005307424813508987,0.04128386080265045,-0.07112017273902893,0.006895221304148436,0.06601119786500931,-0.01811428740620613,-0.018383173272013664,0.01727297715842724,0.03610954061150551,0.023701636120676994,0.03476797044277191,-0.015811903402209282,0.021781643852591515,0.05569954589009285,-0.016911255195736885,0.0576632134616375,-0.10787670314311981,0.03496932610869408,0.018946589902043343,-0.02485222928225994,-0.02192302793264389,0.09086787700653076,0.038795724511146545,-0.03755922242999077,0.016490556299686432,0.08487649261951447,0.046631425619125366,-0.09849388897418976,-0.025878414511680603,-0.0014716400764882565,0.025114357471466064,0.00914488360285759,-0.0685337483882904,-0.02930065058171749],[-0.023046862334012985,-0.003892700420692563,0.04549715667963028,-0.055174361914396286,0.0781307965517044,0.00943019799888134,-0.06012358143925667,-0.09305001050233841,0.16655705869197845,-0.027026737108826637,-0.034564413130283356,0.0060625323094427586,-0.002375588985159993,-0.10502069443464279,-0.07531212270259857,0.0037330875638872385,-0.10752014070749283,-0.028362367302179337,0.053151313215494156,0.013520586304366589,-0.11083048582077026,-0.005179686937481165,0.028139447793364525,0.06830179691314697,-0.02271365188062191,-0.03966151550412178,0.0602048821747303,-0.12304997444152832,-0.12706591188907623,-0.037824228405952454,0.05673197656869888,0.022712847217917442,-0.06482113897800446,0.03869760408997536,-0.03561091423034668,-0.04387747496366501,0.026850713416934013,-0.018533464521169662,-0.06576208025217056,-0.07784529030323029,0.011375480331480503,0.06763522326946259,-0.015957877039909363,-0.022300520911812782,0.03565624728798866,-0.02647676132619381,0.005729875061661005,-0.008096530102193356,-0.02237553894519806,0.13673488795757294],[0.007476862985640764,0.06280964612960815,-0.07061509042978287,0.1755320280790329,-0.08666914701461792,-0.06770006567239761,0.03690355643630028,-0.0056918649934232235,-0.09805529564619064,-0.07213272154331207,-0.16517549753189087,-0.07688318938016891,0.02443612739443779,0.061601974070072174,0.11933909356594086,-0.023506084457039833,0.06009448319673538,-0.015679674223065376,-0.020470112562179565,-0.004938172642141581,0.06666017323732376,-0.004013553727418184,-0.055000871419906616,-0.0523744560778141,-0.0034426606725901365,-0.007655016146600246,0.019538773223757744,0.03889282047748566,0.027169330045580864,0.0622142069041729,-0.03893905505537987,-0.031747423112392426,-0.1224663108587265,0.004578541498631239,0.0593576654791832,-0.05026993900537491,0.03756694868206978,0.022170105949044228,0.07459964603185654,-0.04583687335252762,0.04094574972987175,0.09784139692783356,0.15697696805000305,-0.05254177376627922,-0.056652843952178955,0.1176380068063736,0.012621402740478516,0.011853999458253384,-0.1125079095363617,-0.0025521935895085335],[-0.02118794247508049,0.039777256548404694,0.031235452741384506,0.0478365384042263,-0.030153021216392517,0.03329341113567352,0.034241266548633575,0.04850882664322853,0.028449121862649918,-0.03597060218453407,0.01642889715731144,0.00026860745856538415,0.07117945700883865,0.006986857391893864,-0.0392986536026001,-0.029180487617850304,-0.002268038922920823,-0.05326143279671669,-0.01552151795476675,0.007382574491202831,0.06261525303125381,0.05901123583316803,0.03016556240618229,-0.02195090800523758,-0.021980836987495422,0.057112131267786026,-0.020459871739149094,-0.0605417862534523,-0.08639688789844513,0.003444415982812643,0.028863083571195602,0.009385650046169758,-0.002506251446902752,-0.01718330755829811,0.03738846629858017,0.0070883301086723804,-0.016501232981681824,-0.04994102194905281,-0.007733185309916735,0.06176246330142021,0.07567071914672852,0.04042309522628784,0.04465094208717346,0.03714507818222046,0.008665036410093307,0.035295270383358,0.015472857281565666,-0.011861580424010754,-0.030527517199516296,0.05650998279452324],[-0.02403954230248928,-0.04772593453526497,0.03926878795027733,0.006035961676388979,0.051081426441669464,-0.02246755175292492,0.0030105977784842253,-0.029316235333681107,0.01029360480606556,-0.05259668081998825,-0.01177782379090786,-0.005437888205051422,0.012849424965679646,0.06484625488519669,0.0147689925506711,0.031127849593758583,-0.00919941533356905,0.05239662155508995,0.08197658509016037,0.023793164640665054,-0.09774945676326752,0.033526502549648285,0.00039553246460855007,0.03361133486032486,0.05352325364947319,-0.02419392392039299,-0.023863501846790314,-0.013469887897372246,0.01144860778003931,-0.0036304679233580828,-0.057182032614946365,-0.04113388806581497,0.050727974623441696,0.029320089146494865,-0.01561001967638731,0.008007257245481014,0.05017814040184021,-0.04286634549498558,0.008434342220425606,-0.012487510219216347,0.014788521453738213,-0.067929208278656,-0.051376309245824814,-0.039997268468141556,0.0201885886490345,0.036663223057985306,-0.0070586600340902805,-0.0019987178966403008,0.07908675074577332,-0.005504659377038479],[-0.0683034136891365,0.035405535250902176,-0.07406984269618988,0.11014609038829803,-0.035880282521247864,-0.03694070130586624,-0.03234640508890152,0.0497002936899662,-0.0687682181596756,0.013733810745179653,-0.01702895760536194,-0.039780907332897186,0.09215784817934036,0.06046317517757416,0.08882293105125427,-0.14393404126167297,0.03981272503733635,-0.06656119972467422,-0.04033266007900238,-0.03628329187631607,0.007354611996561289,-0.01994970627129078,-0.08270547538995743,0.027516765519976616,0.0023125128354877234,0.01850973069667816,-0.05033997446298599,0.08429302275180817,-0.01353652123361826,0.08674956858158112,0.0026775202713906765,0.003247389104217291,-0.09395427256822586,-0.012318364344537258,0.08863043785095215,-0.021661261096596718,0.0058547272346913815,0.012688849121332169,0.10373790562152863,0.06799403578042984,0.14191313087940216,0.07004506140947342,0.07301576435565948,0.05120570957660675,-0.04657382518053055,0.022481746971607208,-0.016328591853380203,0.08230997622013092,-0.11697831004858017,-0.06335137039422989],[-0.07068642228841782,0.0744890347123146,0.023863522335886955,0.03345135599374771,0.03435947746038437,-0.07399928569793701,-0.0017805017996579409,0.030572213232517242,-0.013395094312727451,0.0201166570186615,-0.001987528521567583,0.024123309180140495,-0.01034258957952261,0.09284688532352448,-0.020446285605430603,-0.06170918047428131,0.0370124913752079,0.06788741797208786,-0.03693541884422302,0.06950491666793823,0.03995196521282196,0.011724075302481651,-0.06260936707258224,0.013039657846093178,-0.02331397868692875,0.040573764592409134,-0.01330068614333868,0.046904467046260834,-0.04721338301897049,0.11760565638542175,0.014456856064498425,0.041102565824985504,-0.07515735924243927,0.038894642144441605,0.019455784931778908,-0.009327800944447517,0.003840806894004345,0.018374895676970482,-0.026702534407377243,0.025167400017380714,0.02701553888618946,0.037565845996141434,0.07906508445739746,0.013606211170554161,-0.013377170078456402,0.034577012062072754,0.003088151104748249,0.08095953613519669,-0.07458307594060898,-0.00591669837012887],[-0.020082645118236542,0.14157451689243317,-0.10357500612735748,0.1411954164505005,-0.029713429510593414,-0.07953663170337677,0.021845364943146706,0.0663624033331871,-0.03159555792808533,-0.0512620210647583,-0.04997185617685318,-0.056604254990816116,0.03757642209529877,0.12308919429779053,0.03907117620110512,-0.06484906375408173,0.09106535464525223,0.016256703063845634,-0.13399727642536163,0.08831752836704254,0.008171851746737957,0.04504481330513954,-0.07135940343141556,-0.06545522809028625,-0.00024434071383439004,-0.01552141085267067,0.07016147673130035,0.044900115579366684,-0.07921521365642548,0.08770199865102768,0.04955817013978958,-0.05796149745583534,-0.12831898033618927,0.025488121435046196,0.05909356847405434,0.004401032812893391,-0.04974247142672539,0.04288341477513313,0.04774432256817818,0.004036398604512215,0.06270739436149597,0.040002793073654175,0.1643168181180954,0.07203295081853867,-0.014432006515562534,0.05809823423624039,-0.08829627931118011,0.0005432483158074319,-0.09731295704841614,-0.08285771310329437],[0.0038913204334676266,-0.07587216049432755,-0.011168017983436584,-0.05452697351574898,0.014558620750904083,0.013651149347424507,-0.053833264857530594,-0.004856814164668322,0.04413330554962158,0.004334575496613979,-0.02178877219557762,0.042153652757406235,0.013696122914552689,0.013851634226739407,-0.054701779037714005,0.019887961447238922,-0.0024680672213435173,0.07088455557823181,-0.03398320823907852,0.057990387082099915,0.03193146735429764,0.04153743386268616,0.02033226564526558,0.053619593381881714,-0.027201196178793907,0.041749257594347,-0.02782580815255642,0.01883031614124775,0.029442649334669113,-0.08329905569553375,-0.08658476173877716,-0.0142761105671525,-0.054327018558979034,0.027162006124854088,-0.05086711794137955,-0.05149083584547043,0.00263044866733253,-0.020277049392461777,-0.08152516186237335,-0.011792202480137348,-0.08127095550298691,0.005934061482548714,0.006839778274297714,0.044236648827791214,-0.0006853324011899531,-0.04096668213605881,0.0076386574655771255,-0.030705958604812622,0.08086691796779633,0.019595865160226822],[0.005536544136703014,-0.014802178367972374,-0.04566144198179245,0.0091418931260705,-0.03691153600811958,0.0631789118051529,-0.02898872084915638,-0.05588452145457268,0.02413279376924038,0.009175591170787811,-0.04605960100889206,-0.03881911188364029,-0.019430797547101974,0.026294458657503128,-0.0479249507188797,-0.010297267697751522,-0.035637009888887405,-0.04326235502958298,-0.04437479004263878,-0.0651836097240448,0.007587614469230175,-0.0008913385681807995,-0.037596095353364944,-0.045709915459156036,-0.0037405157927423716,-0.019739437848329544,0.016905758529901505,0.050516143441200256,-0.03738471120595932,0.0780312791466713,0.020596524700522423,-0.020469488576054573,-0.03320201486349106,-0.02893592044711113,-0.043133046478033066,0.0421517975628376,-0.03358051925897598,0.05907720327377319,-0.03830843046307564,-0.05469030514359474,0.02568942680954933,0.005128972232341766,0.05372671037912369,0.07313976436853409,-0.03954630717635155,0.021216217428445816,0.014224809594452381,-0.019767669960856438,-0.07679080963134766,0.018256688490509987],[0.053183600306510925,-0.028857499361038208,0.006087402813136578,0.014969256706535816,0.08060948550701141,0.036124322563409805,0.024695908650755882,0.02523389644920826,0.04162199795246124,-0.038434531539678574,-0.0416763573884964,-0.0344369150698185,0.023710425943136215,-0.10307624936103821,-0.1109575554728508,0.04186413064599037,0.009136307053267956,-0.019305530935525894,0.02829558216035366,0.051007550209760666,-0.008554874919354916,-0.014819338917732239,0.07176396995782852,0.04487878829240799,-0.07128776609897614,-0.004705608822405338,0.046037230640649796,-0.08226830512285233,-0.006816280074417591,-0.05577429383993149,0.03810330107808113,0.03541646525263786,0.05393218994140625,0.029922544956207275,0.01621292345225811,0.02070162259042263,-0.05479040741920471,-0.05187404155731201,0.019971748813986778,-0.050298094749450684,0.003987309988588095,-0.0710543841123581,-0.05980103835463524,-0.019770927727222443,0.0689239576458931,-0.11794872581958771,-0.00028217380167916417,-0.006936132442206144,-0.011942068114876747,0.059773072600364685],[-0.013773588463664055,-0.012791247107088566,-0.07617880403995514,0.022476570680737495,-0.032846469432115555,-0.010344934649765491,-0.02498151920735836,0.024343492463231087,-0.02605871483683586,0.06130333989858627,0.04598422721028328,-0.03672473132610321,0.023389261215925217,0.030479811131954193,0.059342775493860245,-0.019073486328125,0.0026357241440564394,-0.07452292740345001,-0.007257824297994375,-0.07723505049943924,0.08846127241849899,-0.027852775529026985,-0.0607508048415184,-0.004694213159382343,-0.04122975841164589,0.06823182851076126,-0.04410737752914429,-0.028035059571266174,-0.0233518835157156,0.044079117476940155,0.0157508235424757,0.005963603034615517,-0.05818651616573334,-0.028365325182676315,0.04343868046998978,-0.0488201379776001,-0.047980695962905884,0.11631869524717331,-0.036210425198078156,-0.0412614606320858,0.05146563798189163,0.06608650088310242,-0.06373801827430725,0.020540593191981316,0.01753152720630169,-0.003276070347055793,0.02962668612599373,-0.025006575509905815,-0.008304913528263569,-0.06608560681343079],[0.04874880239367485,0.004263350740075111,0.04682682082056999,-0.014501355588436127,-0.02715657278895378,-0.02380063571035862,0.03969360142946243,